{"weights": {"distance_to_start": -99999, "num_invaders": -99999.0, "distance_from_middle": -99999, "distance_from_closest_invader": -99999, "scared_distance": 0.0, "distance_to_home": 0.0, "invader_captured": 0.0, "food_protected": 0.0, "avoided_ghost": 0.0, "ambush_location": 0.0, "bias": -99999}, "base": {"epsilon": 0.6, "alpha": 0.1, "discount": 0.9}, "num_episodes": 107, "epsilon": [1.0, 0.6, 0.594, 0.59994, 0.6059394, 0.599880006, 0.59388120594, 0.5998200179994001, 0.5938218178194061, 0.5997600359976002, 0.5937624356376242, 0.5997000599940004, 0.5937030593940604, 0.599640089988001, 0.593643689088121, 0.5995801259790022, 0.5935843247192122, 0.5995201679664043, 0.5935249662867402, 0.5994602159496076, 0.5934656137901115, 0.5994002699280127, 0.6053942726272927, 0.6114482153535656, 0.6053337332000299, 0.6113870705320302, 0.6052731998267099, 0.611325931824977, 0.6174391911432268, 0.6236135830546591, 0.6173774472241125, 0.6235512216963536, 0.6173157094793901, 0.623488866574184, 0.6172539779084422, 0.6234265176875265, 0.6171922525106512, 0.6233641750357578, 0.6171305332854002, 0.6233018386182543, 0.6170688202320718, 0.6232395084343925, 0.6170071133500485, 0.6231771844835491, 0.6169454126387136, 0.6231148667651008, 0.6168837180974497, 0.6, 0.594, 0.59994, 0.5939406, 0.599880006, 0.59388120594, 0.5998200179994001, 0.5938218178194061, 0.5878835996412121, 0.5937624356376242, 0.587824811281248, 0.5937030593940604, 0.5877660288001199, 0.593643689088121, 0.5877072521972398, 0.5818301796752674, 0.5760118778785147, 0.5817719966572998, 0.5759542766907269, 0.5817138194576341, 0.5758966812630578, 0.5816556480756884, 0.5758390915949315, 0.5815974825108808, 0.5757815076857721, 0.5815393227626298, 0.5757239295350035, 0.5814811688303535, 0.57566635714205, 0.5814230207134704, 0.5756087905063357, 0.581364878411399, 0.587178527195513, 0.5813067419235579, 0.5754936745043223, 0.5812486112493656, 0.5754361251368719, 0.5696817638855032, 0.5639849462466482, 0.5696247957091147, 0.5753210436662058, 0.5695678332295437, 0.5752635115618392, 0.5695108764462208, 0.5638157676817586, 0.5694539253585762, 0.5637593861049904, 0.5693969799660403, 0.5750909497657007, 0.5693400402680437, 0.5636466398653633, 0.569283106264017, 0.5635902752013768, 0.5692261779533906, 0.5749184397329244, 0.5691692553355951, 0.5634775627822391, 0.5691123384100616, 0.563421215025961, 0.5690554271762206], "alpha": [0.1, 0.1, 0.1, 0.1001, 0.10020009999999999, 0.10009989989999998, 0.1, 0.1001, 0.1, 0.1001, 0.1, 0.1001, 0.1, 0.1001, 0.1, 0.1001, 0.1, 0.1001, 0.1, 0.1001, 0.1, 0.1001, 0.10020009999999999, 0.10030030009999998, 0.10019999979989998, 0.10030019979969987, 0.10019989959990017, 0.10030009949950006, 0.10040039959899955, 0.10050079999859854, 0.10040029919859994, 0.10050069949779852, 0.10040019879830073, 0.10050059899709901, 0.1004000983981019, 0.1005004984965, 0.1003999979980035, 0.1005003979960015, 0.1003998975980055, 0.10050029749560349, 0.10039979719810789, 0.10050019699530599, 0.10039969679831068, 0.10050009649510898, 0.10039959639861387, 0.10049999599501247, 0.10039949599901746, 0.1, 0.1, 0.1001, 0.1, 0.1001, 0.1, 0.1001, 0.1, 0.1, 0.1001, 0.10020009999999999, 0.10009989989999998, 0.10019999979989998, 0.10009979980010007, 0.10019989959990017, 0.10009969970030026, 0.1, 0.1, 0.1001, 0.1, 0.1001, 0.1, 0.1001, 0.1, 0.1001, 0.1, 0.1001, 0.1, 0.1001, 0.1, 0.1001, 0.1, 0.1001, 0.10020009999999999, 0.10009989989999998, 0.1, 0.1001, 0.1, 0.1, 0.1, 0.1001, 0.10020009999999999, 0.10009989989999998, 0.10019999979989998, 0.10009979980010007, 0.1, 0.1001, 0.1, 0.1001, 0.10020009999999999, 0.10009989989999998, 0.1, 0.1001, 0.1, 0.1001, 0.10020009999999999, 0.10009989989999998, 0.1, 0.1001, 0.1, 0.1001], "discount": [0.9, 0.9, 0.999, 0.9999989999999999, 1.0, 0.999, 0.999, 0.9999989999999999, 0.999, 0.9999989999999999, 0.999, 0.9999989999999999, 0.999, 0.9999989999999999, 0.999, 0.9999989999999999, 0.999, 0.9999989999999999, 0.999, 0.9999989999999999, 0.999, 0.9999989999999999, 1.0, 1.0, 0.999, 0.9999989999999999, 0.999, 0.9999989999999999, 1.0, 1.0, 0.999, 0.9999989999999999, 0.999, 0.9999989999999999, 0.999, 0.9999989999999999, 0.999, 0.9999989999999999, 0.999, 0.9999989999999999, 0.999, 0.9999989999999999, 0.999, 0.9999989999999999, 0.999, 0.9999989999999999, 0.999, 0.9, 0.999, 0.9999989999999999, 0.999, 0.9999989999999999, 0.999, 0.9999989999999999, 0.999, 0.999, 0.9999989999999999, 1.0, 0.999, 0.9999989999999999, 0.999, 0.9999989999999999, 0.999, 0.999, 0.999, 0.9999989999999999, 0.999, 0.9999989999999999, 0.999, 0.9999989999999999, 0.999, 0.9999989999999999, 0.999, 0.9999989999999999, 0.999, 0.9999989999999999, 0.999, 0.9999989999999999, 0.999, 0.9999989999999999, 1.0, 0.999, 0.999, 0.9999989999999999, 0.999, 0.999, 0.999, 0.9999989999999999, 1.0, 0.999, 0.9999989999999999, 0.999, 0.999, 0.9999989999999999, 0.999, 0.9999989999999999, 1.0, 0.999, 0.999, 0.9999989999999999, 0.999, 0.9999989999999999, 1.0, 0.999, 0.999, 0.9999989999999999, 0.999, 0.9999989999999999], "total_reward": [-1170.480000000001, -282.32, -524.9999999999989, -1210.8, -633.2, -334.1199999999998, -481.39999999999986, -320.12, -557.5199999999994, 10981.52000000001, -347.1599999999999, -300.4799999999997, -412.39999999999986, -268.0000000000004, -535.1999999999992, -392.2000000000003, -543.3599999999998, 49.79999999999802, -521.6399999999995, -280.5199999999998, -353.3999999999999, -433.7200000000001, -498.71999999999986, -343.2400000000006, -418.7199999999993, -408.7600000000001, -449.7199999999999, -520.5999999999992, -525.1999999999991, -314.35999999999973, -600.4399999999994, -328.9599999999997, -505.7599999999993, 1387.5200000000075, -449.8399999999997, 84.59999999999877, -539.3599999999994, -387.00000000000017, -467.24000000000035, -399.12000000000006, -459.1999999999996, -414.47999999999934, -488.5200000000001, 27336.9, -525.9600000000004, 3.2800000000001432, -498.8000000000002, -244.8000000000003, -397.72, -378.1999999999992, -538.6000000000007, -215.72000000000006, -587.3600000000004, -438.20000000000033, -409.67999999999984, -878.2800000000002, -266.87999999999977, -493.51999999999913, -492.8799999999994, -638.9999999999993, -522.6800000000001, -416.1599999999997, -356.64000000000016, -434.56000000000006, -308.6799999999999, -392.1199999999996, -259.3200000000001, -402.51999999999975, -299.64, -483.4399999999993, -335.5999999999999, -575.7999999999995, -352.87999999999994, -503.1999999999992, -421.63999999999976, -452.23999999999904, -309.9599999999997, -388.5199999999996, -547.4000000000032, -502.63999999999913, -284.56, -525.0799999999995, -431.0399999999986, -415.99999999999943, -414.8799999999998, -419.75999999999885, -467.5999999999995, -416.5199999999999, -814.3999999999996, -514.3199999999991, 49.99999999999991, -459.32, -307.20000000000005, -397.00000000000017, -976.5999999999993, -476.1999999999998, -280.32, -601.1199999999991, -415.7599999999998, -430.0400000000001, -1152.2399999999982, -444.71999999999923, -383.68000000000035, -520.7199999999992, -323.6, -437.3200000000003, -149.48000000000002]}