{
    "weights": {
        "onDefense": -0.0,
        "stop": 0.0,
        "enemy1_num_carried": -0.005000500504919881,
        "enemy2_num_carried": -0.0070007007068878324,
        "teammate_food_carried": -0.009000900908855785,
        "reverse": -0.0010001001009839862,
        "invaderDistance": -2.8643321932008115e-11,
        "distance_to_start": -0.0500050050493988,
        "num_invaders": -0.0,
        "distance_from_middle": -0.008000800807671809,
        "distance_from_closest_invader": -2.8643321932008115e-11,
        "scared_distance": -0.01994736973881596,
        "distance_to_home": -0.013001301312991688,
        "invader_captured": 0.9985000001103668,
        "food_protected": -0.0030003003029519283,
        "ambush_location_x": -4.824031394618159e-10,
        "ambush_location_y": -1.7025993157475852e-10,
        "teammate_location_x": -0.008000800807871808,
        "teammate_location_y": -0.011001101110823737,
        "opponent1_location_x": -4.824031394618159e-10,
        "opponent1_location_y": -1.7025993157475852e-10,
        "opponent2_location_x": -4.824031394618159e-10,
        "opponent2_location_y": -1.7025993157475852e-10,
        "successor_score": 0.0,
        "num_ghosts_one_step_away": 0.0,
        "distance_from_closest_ghost": 0.0,
        "is_home": 0.0,
        "distanceToFood": 0.0,
        "food_eaten": 0.0,
        "avoided_ghost": -0.007000000028359285,
        "carrying_food": 0.0,
        "distance_to_capsule": 0.0,
        "game_score": -0.0070007007068878324,
        "bias": -0.001000100100983976
    },
    "base": {
        "epsilon": 0.6,
        "alpha": 0.1,
        "discount": 0.9
    },
    "current": {
        "epsilon": 0.6,
        "alpha": 0.1,
        "discount": 0.9
    },
    "num_episodes": 2550,
    "latest_reward": -59179253226.29382,
    "epsilon": [
        0
    ],
    "alpha": [
        0.1
    ],
    "discount": [
        0.9
    ],
    "total_reward": [
        -892344.4424872481,
        688420780934.7554,
        508618916929.16626,
        -75155802861012.75,
        728217902115.8281,
        -73999591320.35498,
        -72999802478.25012,
        672218213623.7444,
        1134238242896.4502,
        688820610366.0947,
        744198611149.2236,
        1077199223368.1995,
        -11801769141.227467,
        -70950429215469.6,
        507267987122081.0,
        -70950429215469.6,
        -193219934243.53058,
        -167009610430.50433,
        1119002293483.0288,
        -73647205111642.5,
        831789252791282.1,
        723802044950.7389,
        1331201688433.164,
        744200311106.7236,
        740600090480.0131,
        286803080184.01166,
        -16101770590.267075,
        708400351519.9695,
        295402298587.80206,
        580300230978.1592,
        -98801143008.24823,
        -129601668102.59859,
        -89801194083.54797,
        -78202143814.49052,
        1119002293483.0288,
        515802431336.8092,
        -604074403843773.5,
        710201012218.0807,
        -167009610430.50433,
        -193420163270.7439,
        -193420163270.7439,
        -193420163270.7439,
        1866602626910.0535,
        16533666626927.96,
        530600616328.7637,
        118894216944365.47,
        744200311106.7236,
        740600090480.0131,
        128307845349541.78,
        43382094502997.28,
        -193220092643.53058,
        -166993897782.24606,
        -167009610430.50433,
        -193420163270.7439,
        704402465033.5029,
        -8782809666883.844,
        526402294788.46216,
        750667800175537.0,
        744200311106.7236,
        515802431336.8092,
        -572729700643940.4,
        1084801200566.0635,
        -167009610430.50433,
        -166993897782.24606,
        -167009610430.50433,
        -193420163270.7439,
        -357262859363680.6,
        -80599641591.51593,
        -65001605853.41298,
        524399789356.2096,
        744200311106.7236,
        515802431336.8092,
        308800314674.49084,
        1306402139217.6594,
        -193220092643.53058,
        -193420163270.7439,
        -167009610430.50433,
        -193420163270.7439,
        261000514904.3915,
        -23889376402096.297,
        -89048890314157.44,
        -70602110175.34277,
        744200311106.7236,
        515802431336.8092,
        -49212710614950.46,
        1081202222252.552,
        -167009610430.50433,
        -166993897782.24606,
        -193420163270.7439,
        -167009610430.50433,
        683000995214.029,
        -33208836652889.426,
        -113799834023.49352,
        -94402346838.61678,
        744200311106.7236,
        515802431336.8092,
        -75003217557.21014,
        723002450598.413,
        -193220092643.53058,
        -193420163270.7439,
        -193420163270.7439,
        -167009610430.50433,
        899399876865.0431,
        249896196513004.38,
        -79401681461.72655,
        485202723211.4972,
        1119002293483.0288,
        740600090480.0131,
        -148846409359088.5,
        288402578097.15216,
        -193220092643.53058,
        -166993897782.24606,
        -167009610430.50433,
        -167009610430.50433,
        -97722617759115.16,
        -112804092679.22444,
        -79801602864.11151,
        71176662354895.62,
        744200311106.7236,
        740600090480.0131,
        -76401709600.23692,
        -109200931463.9773,
        -193220092643.53058,
        -193420163270.7439,
        -193420163270.7439,
        -193420163270.7439,
        -51226702641739.5,
        470807271931632.25,
        -75999488938.88441,
        208791304520997.44,
        744200311106.7236,
        515802431336.8092,
        -150128401577044.25,
        -77799807838.18665,
        -167009610430.50433,
        -166993897782.24606,
        -167009610430.50433,
        -167009610430.50433,
        488000935041.66156,
        -111603860205.86182,
        732600573186.2787,
        207790709240778.7,
        1119002293483.0288,
        740600090480.0131,
        -580452587677141.5,
        733800251447.3524,
        -193220092643.53058,
        -193420163270.7439,
        -193420163270.7439,
        -193420163270.7439,
        -75201538673.86916,
        475799774644.3894,
        703400496388.0336,
        -69399347616.23535,
        1119002293483.0288,
        740600090480.0131,
        -29710799264168.65,
        297198299543.0587,
        -167009610430.50433,
        -166993897782.24606,
        -167009610430.50433,
        -193420163270.7439,
        -130126199271481.17,
        150289398342181.28,
        -443789042039463.5,
        -105598838918.74162,
        744200311106.7236,
        740600090480.0131,
        290400247522.808,
        300998277094.48004,
        -167009610430.50433,
        -193420163270.7439,
        -167009610430.50433,
        -193420163270.7439,
        -59301566087.26854,
        744200311106.7236,
        -27798929369.55159,
        693601558778.6078,
        727600147999.3993,
        34623282360101.523,
        499797069718.3113,
        724223199909.0217,
        550209594919.7266,
        504610514528.6666,
        549413657384.6316,
        602091731181174.9,
        520172113179.34436,
        580939616362741.2,
        401471217276065.44,
        1009738983394.5825,
        367662865053571.2,
        525200728496.8721,
        -55801745778.47211,
        -84401768667.49852,
        -94202407533.14479,
        536400988708.18835,
        718998952242.6716,
        709601150461.8057,
        -37299330829.599754,
        734620497961.9037,
        262458363145737.0,
        505620696119.5131,
        296020590738.7494,
        744218310658.7236,
        -71199394270.3025,
        498240226147.47943,
        50531567762272.875,
        526018635072.29285,
        -63129276494180.25,
        -62801377482.746216,
        -98202403399.74696,
        744218310658.7236,
        1114420539525.5469,
        -394453186657296.94,
        -133201072806.08932,
        -167009431443.36087,
        -193420084070.7439,
        -193420084070.7439,
        -193420084070.7439,
        518617324164.83386,
        358407588989380.2,
        738620813921.302,
        484416903811.01776,
        1114238373982.3857,
        1114420539525.5469,
        -75201691738.13995,
        -42063144902200.22,
        -167009431443.36087,
        -193420084070.7439,
        -193420084070.7439,
        -193420084070.7439,
        -105201387250.02907,
        292211417734015.3,
        733218191773.7773,
        -146202245627.09894,
        1114238373982.3857,
        -71199394270.3025,
        1083039600170.4473,
        70182258337641.68,
        -193219934243.53058,
        -166993803462.24606,
        -167009431443.36087,
        -167009431443.36087,
        -75179533222.86021,
        70167258901836.78,
        -68401668175.08925,
        1296440572893.1218,
        744218310658.7236,
        1114420539525.5469,
        -268619651478232.5,
        117556323030199.53,
        -167009431443.36087,
        -166993803462.24606,
        -167009431443.36087,
        -193420084070.7439,
        -93201471210.11827,
        694618427051.083,
        -58199298594.78356,
        -87382046447.26076,
        1114238373982.3857,
        1114420539525.5469,
        -149225710340910.44,
        507418872130.1727,
        -193219934243.53058,
        -193420084070.7439,
        -193420084070.7439,
        -193420084070.7439,
        207461527140866.72,
        405385808910693.1,
        -82599844018.09247,
        583193351109338.1,
        1114238373982.3857,
        -71199394270.3025,
        -1034239821084487.2,
        58203895508812.67,
        -167009431443.36087,
        -166993803462.24606,
        -167009431443.36087,
        -193420084070.7439,
        277818737987.83594,
        499869797425768.9,
        -66401517665.73399,
        -100202218019.7373,
        1114238374115.7192,
        -71199394270.3025,
        -68137099610921.375,
        1082439234524.1946,
        -167009431443.36087,
        -166993803462.24606,
        -167009431443.36087,
        -193420084070.7439,
        734820594486.3333,
        474638031393.72266,
        -76999556247.9154,
        478617547518.6482,
        744218310658.7236,
        -71199394270.3025,
        -214218910767629.25,
        292615148204.8923,
        -193219934243.53058,
        -193420084070.7439,
        -193420084070.7439,
        -193420084070.7439,
        -191185578887912.1,
        97433962018189.1,
        41093470428443.766,
        -88202157445.77905,
        744218310658.7236,
        1114420539525.5469,
        679638345531.5465,
        -57025275124016.65,
        -167009431443.36087,
        -193420084070.7439,
        -193420084070.7439,
        -167009431443.36087,
        -97401470307.0249,
        210186058244948.88,
        720020514606.0391,
        -97402708242.32439,
        1114238373982.3857,
        1114420539525.5469,
        4686238494034.6875,
        43745744866753.15,
        -167009431443.36087,
        -193420084070.7439,
        -167009431443.36087,
        -193420084070.7439,
        -314282184132000.3,
        705240642041.667,
        743218316357.8835,
        -70599068885.70393,
        744218310658.7236,
        1114420539525.5469,
        489617836014.3623,
        -6856075045317.078,
        -167009431443.36087,
        -193420084070.7439,
        -167009431443.36087,
        -193420084070.7439,
        -136182499614.29533,
        42788690352953.18,
        256418097456.05026,
        187424479718986.47,
        1114238373982.3857,
        -71199394270.3025,
        60248814720603.03,
        14234458358487.652,
        -167009431443.36087,
        -193420084070.7439,
        -167009431443.36087,
        -193420084070.7439,
        688018329888.3534,
        293020214530.5393,
        -61799248418.516785,
        -22716317752064.06,
        744218310658.7236,
        1114420539525.5469,
        -55787428391363.32,
        41391598190687.664,
        -167009431443.36087,
        -193420084070.7439,
        -167009431443.36087,
        -193420084070.7439,
        -89601326357.18886,
        656616866346.4735,
        -60601588512.69049,
        910618194648.9244,
        744218310658.7236,
        -71199394270.3025,
        -135590877910275.03,
        189781957315293.94,
        -167009431443.36087,
        -166993803462.24606,
        -167009431443.36087,
        -193420084070.7439,
        -137401649361.78737,
        -118801864471.2839,
        -76001906947.6663,
        -97403009561.55832,
        744218310658.7236,
        -71199394270.3025,
        713018376297.1428,
        -28603901399967.96,
        -193219934243.53058,
        -166993803462.24606,
        -193420084070.7439,
        -193420084070.7439,
        -96601668899.29167,
        151385750211013.03,
        -80199458365.51134,
        -121002466887.79434,
        744218310658.7236,
        -71199394270.3025,
        -91801690335.25166,
        -77199529130.53064,
        -193219934243.53058,
        -166993803462.24606,
        -193420084070.7439,
        -167009431443.36087,
        -149221712043180.3,
        -93999471756.23509,
        -79001223713.36528,
        105405503457107.08,
        744218310658.7236,
        -71199394270.3025,
        -29701428049763.32,
        303820643998.38513,
        -167009431443.36087,
        -166993803462.24606,
        -193420084070.7439,
        -167009431443.36087,
        -101401476520.56119,
        357829295346921.0,
        -107601444912.09384,
        680616383837.7949,
        744218310658.7236,
        -71199394270.3025,
        -357062449131917.4,
        1484458611077.5574,
        -193219934243.53058,
        -193420084070.7439,
        -193420084070.7439,
        -167009431443.36087,
        483818167523.6418,
        727925335657531.2,
        -57601500696.18075,
        -97603298567.18466,
        744218310658.7236,
        1114420539525.5469,
        1081236798391.2195,
        1064858105307.1412,
        -193219934243.53058,
        -166993803462.24606,
        -193420084070.7439,
        -193420084070.7439,
        -148812491080407.62,
        -91379151169.66588,
        -77401098323.21019,
        1301237273974.8994,
        1114238373982.3857,
        1114420539525.5469,
        -178691829509345.56,
        49691167919720.36,
        -167009431443.36087,
        -193420084070.7439,
        -167009431443.36087,
        -193420084070.7439,
        24606620680998.75,
        41117629260867.84,
        -141201520493.0303,
        -99802936476.67166,
        1114238373982.3857,
        1114420539525.5469,
        497818267482.29517,
        277017472545.8829,
        -193219934243.53058,
        -166993803462.24606,
        -193420084070.7439,
        -167009431443.36087,
        906637955467.5955,
        1174864941816651.5,
        -453044684866589.1,
        525817670104.5404,
        1114238373982.3857,
        1114420539525.5469,
        -29116361575152.797,
        221992118996917.4,
        -167009431443.36087,
        -166993803462.24606,
        -193420084070.7439,
        -193420084070.7439,
        1662836357993.1052,
        118310762501074.19,
        -75401104261.5694,
        -79001920157.93732,
        1114238373982.3857,
        -71199394270.3025,
        -35578097935348.78,
        1459056602025.3794,
        -193219934240.53058,
        -166993803462.24606,
        -167009431443.36087,
        -193420084070.7439,
        701438652899.0559,
        415254013363186.25,
        -80601666423.4533,
        -107002816428.49844,
        744218310658.7236,
        1114420539525.5469,
        496020251178.3577,
        1502258234694.1719,
        -167009431443.36087,
        -193420084070.7439,
        -167009431443.36087,
        -193420084070.7439,
        473218428341.3716,
        -85199946558.56505,
        -67001726634.272865,
        1319638576429.704,
        1114238373982.3857,
        1114420539525.5469,
        -15947039126668.818,
        5203901779498.121,
        -167009431443.36087,
        -166993803462.24606,
        -193420084070.7439,
        -167009431443.36087,
        -122401006372.13277,
        279303160756539.66,
        532220419753.23816,
        480217620878.5195,
        1114238373982.3857,
        -71199394270.3025,
        1086878361021.5262,
        1083676970786.6461,
        -167009431443.36087,
        -193420084070.7439,
        -167009431443.36087,
        -167009431443.36087,
        -82201546068.19868,
        501838456128.63776,
        -59201668952.761345,
        -81399036912.25777,
        744218310658.7236,
        -71199394270.3025,
        1081258232902.3282,
        706002872573294.1,
        -167009431443.36087,
        -193420084070.7439,
        -193420084070.7439,
        -193420084070.7439,
        -133054893851637.31,
        -131782474410.79955,
        727620280668.9866,
        1118840624948.8848,
        744218310658.7236,
        -71199394270.3025,
        477617459660.22345,
        172339654855986.88,
        -167009431443.36087,
        -193420084070.7439,
        -193420084070.7439,
        -193420084070.7439,
        -193722945209792.03,
        610591878635187.0,
        -92401463748.90137,
        -63399287154.91451,
        744218310658.7236,
        1114420539525.5469,
        670238354126.4395,
        42173284862968.45,
        -167009431443.36087,
        -193420084070.7439,
        -193420084070.7439,
        -167009431443.36087,
        -149653811382265.56,
        37983041127425.23,
        -68601585586.34395,
        -80602074935.40218,
        1114238373982.3857,
        -71199394270.3025,
        -148065515010442.4,
        267695059163489.2,
        -193219934243.53058,
        -166993803462.24606,
        -193420084070.7439,
        -167009431443.36087,
        -112001070261.7464,
        -118850959991647.42,
        712220466334.774,
        -117802021887.78493,
        1114238374115.7192,
        -71199394270.3025,
        -59895173829021.13,
        -104781622630.51256,
        -193219934243.53058,
        -166993803462.24606,
        -167009431443.36087,
        -167009431443.36087,
        -97001670813.56223,
        48095373198943.03,
        731218612563.1396,
        -130182733333.41223,
        1114238374115.7192,
        -71199394270.3025,
        525018192153.661,
        724020445026.2638,
        -167009431443.36087,
        -166993803462.24606,
        -167009431443.36087,
        -193420084070.7439,
        -210846871794196.3,
        23511091582693.477,
        716618599826.2023,
        215779629353770.2,
        744218310658.7236,
        -71199394270.3025,
        -69801680223.00214,
        -87399772408.1012,
        -167009431443.36087,
        -193420084070.7439,
        -167009431443.36087,
        -167009431443.36087,
        -88404690647376.78,
        52493789236339.47,
        319420508014.1664,
        -82599151054.10214,
        744218310658.7236,
        1114420539525.5469,
        1480257325611.6208,
        5266656737280.807,
        -193219934240.53058,
        -166993803462.24606,
        -193420084070.7439,
        -167009431443.36087,
        -444871371957169.8,
        70769076689397.25,
        -73999687217.10204,
        -107799106482.1158,
        744218310658.7236,
        1114420539525.5469,
        -80401676695.14793,
        150675058150513.94,
        -193219934243.53058,
        -193420084070.7439,
        -167009431443.36087,
        -167009431443.36087,
        -135990517587194.64,
        685216412355.7448,
        -107201735330.67194,
        -190985251113810.12,
        1114238373982.3857,
        1114420539525.5469,
        -119001667038.08717,
        470609908048854.25,
        -167009431443.36087,
        -193420084070.7439,
        -167009431443.36087,
        -193420084070.7439,
        -133401546277.78229,
        -116200523058.73535,
        -81201687984.47447,
        -105402936054.19049,
        744218310658.7236,
        1114420539525.5469,
        -1095854823430397.8,
        719218351241.3688,
        -193219934243.53058,
        -166993803462.24606,
        -193420084070.7439,
        -167009431443.36087,
        1100440480261.4993,
        -86002002757.69313,
        -111801581155.44414,
        -108382204891.53072,
        744218310825.2375,
        1114420539525.5469,
        -35058004168661.74,
        1115640292228.5942,
        -193219934240.53058,
        -193420084070.7439,
        -167009431443.36087,
        -193420084070.7439,
        266218433800.1073,
        469037558625.1497,
        1512838605066.8345,
        722020469389.209,
        1114238373982.3857,
        -71199394270.3025,
        -139201652197.27982,
        801595318401019.0,
        -167009431443.36087,
        -166993803462.24606,
        -167009431443.36087,
        -167009431443.36087,
        886840692501.7037,
        -115601644631.56276,
        714219111829.6914,
        68833380499327.11,
        1114238374115.7192,
        1114420539525.5469,
        -13943564157470.863,
        165386240572857.44,
        -193219934240.53058,
        -166993803462.24606,
        -193420084070.7439,
        -193420084070.7439,
        -106201521844.6434,
        479416838482.0349,
        510618571473.65857,
        8817571687500.977,
        744218310658.7236,
        -71199394270.3025,
        53596238800269.09,
        77326517843264.4,
        -167009431443.36087,
        -166993803462.24606,
        -167009431443.36087,
        -193420084070.7439,
        -95362897888359.4,
        -70199426543.29767,
        524420230843.0438,
        739418061095.7864,
        744218310658.7236,
        1114420539525.5469,
        517218414956.94073,
        44775190822884.19,
        -193219934240.53058,
        -193420084070.7439,
        -193420084070.7439,
        -193420084070.7439,
        695218407428.3988,
        33043481401408.273,
        728020528089.2831,
        703020835008.5863,
        744218310658.7236,
        1114420539525.5469,
        894458320833.1141,
        51099550297393.03,
        -193219934243.53058,
        -166993803462.24606,
        -167009431443.36087,
        -167009431443.36087,
        -76199581457.49376,
        290817433881.49316,
        1308440590207.684,
        -120755776873235.08,
        744218310658.7236,
        1114420539525.5469,
        -78001672213.53568,
        79463885474502.9,
        -193219934243.53058,
        -166993803462.24606,
        -167009431443.36087,
        -193420084070.7439,
        -149228710830692.5,
        292559979414456.5,
        -56801598704.28751,
        -96599118435.05206,
        744218310825.2375,
        1114420539525.5469,
        471418342577.49603,
        250511440593634.72,
        -167009431443.36087,
        -166993803462.24606,
        -193420084070.7439,
        -167009431443.36087,
        -80449482773793.02,
        -95201870340.81575,
        -427609329438569.1,
        265018206791.61508,
        1114238373982.3857,
        1114420539525.5469,
        523419439639.9425,
        1881477280620.1807,
        -193219934243.53058,
        -166993803462.24606,
        -193420084070.7439,
        -193420084070.7439,
        -122801484345.9873,
        -135001630125.61319,
        -74601490738.3827,
        302017659965.3011,
        1114238373982.3857,
        -71199394270.3025,
        891438103434.8127,
        131711338471404.72,
        -167009431443.36087,
        -166993803462.24606,
        -193420084070.7439,
        -193420084070.7439,
        -133001534180.44926,
        -63117674905855.44,
        705020213030.3546,
        -104201798013.51778,
        744218310658.7236,
        -71199394270.3025,
        503818319587.55896,
        700218262640.9484,
        -167009431443.36087,
        -193420084070.7439,
        -193420084070.7439,
        -167009431443.36087,
        705417373286.6167,
        -114582256209.0879,
        -79801428105.00868,
        731220724562.8788,
        744218310658.7236,
        -71199394270.3025,
        -503258007335362.0,
        51081404035612.53,
        -167009431443.36087,
        -166993803462.24606,
        -167009431443.36087,
        -167009431443.36087,
        405030697687260.1,
        51613630170509.47,
        -78009523157.08165,
        1471840991759.212,
        744218310658.7236,
        1114420539525.5469,
        279003428517713.6,
        671618331775.5675,
        -193219934243.53058,
        -166993803462.24606,
        -167009431443.36087,
        -193420084070.7439,
        -70381704631.25835,
        -116400479634.81718,
        738220649826.42,
        715020673453.0265,
        744218310658.7236,
        -71199394270.3025,
        -149219222772486.1,
        725018291266.8917,
        -167009431443.36087,
        -193420084070.7439,
        -193420084070.7439,
        -193420084070.7439,
        -119581462036.5674,
        482638033733.90295,
        711018580264.3004,
        -60199366639.4829,
        1114238374115.7192,
        1114420539525.5469,
        28024817912399.605,
        731018259749.9816,
        -167009431443.36087,
        -166993803462.24606,
        -193420084070.7439,
        -167009431443.36087,
        -192484373934562.7,
        639817475017.8793,
        717818646607.9471,
        -59401877902.521515,
        1114238373982.3857,
        -71199394270.3025,
        1070458073585.0706,
        -23890756360280.67,
        -193219934243.53058,
        -166993803462.24606,
        -193420084070.7439,
        -167009431443.36087,
        -122201292420.60776,
        -105982063320.41898,
        -74799801898.58585,
        723018072325.2363,
        1114238374115.7192,
        -71199394270.3025,
        -66201697338.94029,
        1067858334389.4341,
        -193219934243.53058,
        -193420084070.7439,
        -193420084070.7439,
        -167009431443.36087,
        -119801407535.7686,
        69095264984152.516,
        717418846669.5472,
        -114202292925.06778,
        1114238374115.7192,
        -71199394270.3025,
        469620530593.48193,
        -66965517905762.66,
        -167009431443.36087,
        -166993803462.24606,
        -193420084070.7439,
        -167009431443.36087,
        -360245668864875.0,
        -24479777452822.42,
        -80000170269.91348,
        558350871356433.44,
        744218310658.7236,
        -71199394270.3025,
        -190377404265880.38,
        -52061095223492.47,
        -167009431443.36087,
        -193420084070.7439,
        -167009431443.36087,
        -167009431443.36087,
        -102801549303.75113,
        480816814445.26715,
        -99999478182.45047,
        188992139825730.75,
        1114238374115.7192,
        1114420539525.5469,
        -47818470778674.336,
        488850763485153.3,
        -167009431443.36087,
        -166993803462.24606,
        -193420084070.7439,
        -167009431443.36087,
        687240460392.3182,
        717020443824.7369,
        -63201666326.97378,
        117707521243213.03,
        744218310658.7236,
        -71199394270.3025,
        -718659381281881.0,
        695640499595.2858,
        -167009431443.36087,
        -193420084070.7439,
        -167009431443.36087,
        -193420084070.7439,
        -87180317070.71835,
        170944868865688.38,
        -78802178731.81456,
        -81799616933.88168,
        744218310658.7236,
        1114420539525.5469,
        -48207071184511.836,
        3096857621651.728,
        -193219934243.53058,
        -166993803462.24606,
        -193420084070.7439,
        -193420084070.7439,
        -85801430580.58235,
        70799678852818.94,
        -79599308726.65367,
        -81199056050.29588,
        1114238373982.3857,
        -71199394270.3025,
        -130600894856.20703,
        651033186992.3475,
        -193219934243.53058,
        -166993803462.24606,
        -167009431443.36087,
        -167009431443.36087,
        -286613451538916.4,
        33009700453382.29,
        -69001286676.28275,
        1293640829276.2336,
        744218310658.7236,
        1114420539525.5469,
        -339528762000498.56,
        151276836894447.72,
        -167009431443.36087,
        -193420084070.7439,
        -193420084070.7439,
        -193420084070.7439,
        -160302515276593.5,
        661615864015.8605,
        -456784701936663.5,
        -108202769756.63158,
        1114238373982.3857,
        -71199394270.3025,
        292418359172.89197,
        314618195673.2336,
        -193219934243.53058,
        -193420084070.7439,
        -167009431443.36087,
        -167009431443.36087,
        -7006688456599.258,
        -122499290552173.42,
        728418809122.6162,
        5602879539254.287,
        1114238374115.7192,
        -71199394270.3025,
        1068638969035.5713,
        1082240594385.8774,
        -167009431443.36087,
        -193420084070.7439,
        -193420084070.7439,
        -167009431443.36087,
        -122801622123.49341,
        150659817690298.0,
        -67801805814.183685,
        647015361998.6558,
        744218310658.7236,
        -71199394270.3025,
        533820132273.8845,
        731018259749.9816,
        -167009431443.36087,
        -193420084070.7439,
        -193420084070.7439,
        -193420084070.7439,
        -72201672168.55875,
        -132783887316.1614,
        738620814755.0337,
        -105402621291.57803,
        744218310658.7236,
        1114420539525.5469,
        52058878340117.1,
        73228209055285.17,
        -193219934243.53058,
        -166993803462.24606,
        -193420084070.7439,
        -193420084070.7439,
        -129601972708.7618,
        -124979346598.4872,
        503618509496.22925,
        -70399585890.34381,
        1114238373982.3857,
        1114420539525.5469,
        -276984492076899.06,
        705218290156.1907,
        -167009431443.36087,
        -193420084070.7439,
        -167009431443.36087,
        -167009431443.36087,
        -31755580529066.434,
        -118799345227.71936,
        -78801630765.88425,
        -72001800903.79402,
        744218310658.7236,
        1114420539525.5469,
        -85201666141.3866,
        1288040697721.819,
        -167009431443.36087,
        -166993803462.24606,
        -167009431443.36087,
        -193420084070.7439,
        -270432851695354.56,
        293612413870.2498,
        289820530734.95197,
        216182793494553.8,
        1114238373982.3857,
        1114420539525.5469,
        4300418320326.958,
        1462038309397.42,
        -193219934243.53058,
        -193420084070.7439,
        -167009431443.36087,
        -167009431443.36087,
        468618421801.09875,
        425417460297.2818,
        711220250633.849,
        188758367937917.25,
        744218310658.7236,
        -71199394270.3025,
        -446574353077014.1,
        105620124030768.22,
        -193219934240.53058,
        -193420084070.7439,
        -193420084070.7439,
        -193420084070.7439,
        -109165886735672.61,
        468418271382.7674,
        -86601460647.23288,
        707620666725.4503,
        744218310658.7236,
        1114420539525.5469,
        -195645072478459.78,
        -70799369854.52255,
        -193219934243.53058,
        -193420084070.7439,
        -193420084070.7439,
        -193420084070.7439,
        -1147736611511838.2,
        -85599434594.43036,
        720220536490.3105,
        50471216512402.62,
        1114238373982.3857,
        1114420539525.5469,
        1251638338317.5503,
        2291638401582.9424,
        -193219934243.53058,
        -193420084070.7439,
        -167009431443.36087,
        -167009431443.36087,
        -80781122229.68387,
        -104801822985.47818,
        -65999270727.28349,
        -89199755749.59615,
        1114238373982.3857,
        -71199394270.3025,
        1679278343573.6978,
        514438222815.12756,
        -193219934243.53058,
        -193420084070.7439,
        -167009431443.36087,
        -193420084070.7439,
        -128981768992.38887,
        117937742980053.95,
        -58201678530.42294,
        318817819927.09375,
        1114238374115.7192,
        -71199394270.3025,
        -191582044250631.22,
        1277237062256.581,
        -193219934243.53058,
        -166993803462.24606,
        -193420084070.7439,
        -167009431443.36087,
        474418418758.63135,
        679016970174.5817,
        727020575843.4867,
        495217955556.771,
        744218310658.7236,
        1114420539525.5469,
        107172968148261.75,
        133118170038573.34,
        -167009431443.36087,
        -166993803462.24606,
        -167009431443.36087,
        -167009431443.36087,
        702218385330.279,
        -82001664523.26802,
        -77801569612.33598,
        42159889985095.414,
        744218310658.7236,
        1114420539525.5469,
        62771019655924.15,
        5603520221701.762,
        -167009431443.36087,
        -193420084070.7439,
        -167009431443.36087,
        -167009431443.36087,
        -150823882858871.47,
        129169311588207.66,
        -78399366259.19205,
        -115804501229.93282,
        744218310658.7236,
        -71199394270.3025,
        521040598143.1708,
        730240191292.0736,
        -193219934243.53058,
        -193420084070.7439,
        -167009431443.36087,
        -167009431443.36087,
        -98781716560.25418,
        -14816992071651.912,
        703018621626.631,
        -76002427366.45013,
        744218310658.7236,
        1114420539525.5469,
        -88801689593.29852,
        245791340732262.94,
        -167009431443.36087,
        -166993803462.24606,
        -167009431443.36087,
        -167009431443.36087,
        169235044000069.97,
        31251867753487.137,
        504217743091.95776,
        -103799200004.24815,
        -31603980004.079407,
        -90799278786.33974,
        702620641201.17,
        30471916636723.54,
        53031384715113.42,
        -74201859981.01422,
        -99802242648.4559,
        693420680362.3242,
        2495303271178.8613,
        83314578908068.6,
        5338041903160.041,
        -58000423729.422554,
        10876049736704.12,
        2727522567359.5156,
        2731405735075.9116,
        2742991764375.4404,
        -59061176907.32,
        -71599483911612.25,
        2742201842507.412,
        -43010790275438.25,
        -59784942512.81961,
        -201811654737922.06,
        5529709284974.953,
        5098581185729.268,
        5318099766176.17,
        -68946566884.5864,
        -67089592955.729385,
        -72664968316.49788,
        4727928602925.768,
        5336599326800.428,
        -156073042427327.8,
        2711212547473.5356,
        -70174229355.02373,
        0,
        -59179253226.29382
    ]
}