{
    "weights": {
        "onDefense": 0.0,
        "stop": 0.0,
        "enemy1_num_carried": -0.0,
        "enemy2_num_carried": 0.0,
        "reverse": -0.0009999996435498424,
        "invaderDistance": -0.017000000110154383,
        "distance_to_start": -0.0379999864550944,
        "num_invaders": 0.0,
        "distance_from_middle": -0.0009999996435498526,
        "distance_from_closest_invader": -0.017000000110154383,
        "scared_distance": -0.0010000000698293073,
        "distance_to_home": -0.01199999572259823,
        "invader_captured": 0.9990000001087911,
        "food_protected": -0.01999999287099705,
        "ambush_location_x": -0.006000000038807429,
        "ambush_location_y": -0.0020000000129358096,
        "teammate_location_x": -0.013999995009697935,
        "teammate_location_y": -0.006999997504848967,
        "opponent1_location_x": -0.018999993227447196,
        "opponent1_location_y": -0.007999997148398821,
        "opponent2_location_x": -0.018999993227447196,
        "opponent2_location_y": -0.007999997148398821,
        "successor_score": 0.0,
        "num_ghosts_one_step_away": 0.0,
        "distance_from_closest_ghost": 0.0,
        "is_home": 0.0,
        "distanceToFood": 0.0,
        "food_eaten": 0.0,
        "avoided_ghost": -0.004999998217549263,
        "carrying_food": 0.0,
        "distance_to_capsule": 0.0,
        "game_score": -0.0,
        "teammate_food_carried": 0.0,
        "bias": -0.0009999996435498526
    },
    "base": {
        "epsilon": 0.6,
        "alpha": 0.1,
        "discount": 0.9
    },
    "current": {
        "epsilon": 0.0,
        "alpha": 0.1,
        "discount": 0.8991
    },
    "num_episodes": 4871,
    "latest_reward": -166993897782.24606,
    "epsilon": [
        0,
        0.0,
        0.0,
        0.0,
        0.0,
        0.0,
        0.0,
        0.6,
        0.54,
        0.48600000000000004,
        0.43740000000000007,
        0.39366000000000007,
        0.35429400000000005,
        0.31886460000000005,
        0.28697814000000005,
        0,
        0.0
    ],
    "alpha": [
        0.1,
        0.1,
        0.1,
        0.1,
        0.1001,
        0.10020009999999999,
        0.10009989989999998,
        0.1,
        0.1,
        0.1,
        0.1,
        0.1,
        0.1,
        0.1,
        0.1,
        0.1,
        0.1
    ],
    "discount": [
        0.9,
        0.8991,
        0.8982009,
        0.8973026990999999,
        0.8982000017990999,
        0.8990982018008988,
        0.8981991035990979,
        0.9,
        0.8991,
        0.8982009,
        0.8973026990999999,
        0.8964053964008999,
        0.895508991004499,
        0.8946134820134944,
        0.893718868531481,
        0.9,
        0.8991
    ],
    "total_reward": [
        -68801580685.81477,
        862494.9846985172,
        541018404748.249,
        -93401618606.34099,
        -15599323331.585438,
        -38199598124.613655,
        759420746595.5989,
        -74001734886.16435,
        -128001142388.03271,
        -99599312613.77388,
        -66001665824.90788,
        275198536333.6802,
        494201020005.3069,
        -109401487976.18993,
        70584859667512.45,
        19898.025015634772,
        -98002190979.28284,
        -85798990357.23407,
        -319536601712478.75,
        -73399270706.96544,
        19898.025015634772,
        -97286133515478.66,
        8865356449884.438,
        1325600846731.7732,
        480797369836.5973,
        744198611149.2236,
        519598431736.3113,
        678999105594.5626,
        677998798098.887,
        19898.025015634772,
        742198691326.2673,
        -666000268588416.2,
        -116599264788.50276,
        741798731336.8213,
        491797889467.20154,
        1325800667725.2637,
        740598389859.8689,
        -34829486799413.78,
        -81203414446.08714,
        511198307026.5256,
        5515398328712.629,
        -64403464237.137146,
        -75398939286.48705,
        1079598732444.5123,
        -33779046689946.297,
        1663598873625.9043,
        540400958950.36255,
        744198611149.2236,
        -193401833377.98972,
        885799264985.1636,
        -7912560245672.832,
        -349113601457747.5,
        5515398328712.629,
        -64403464237.137146,
        -75398939286.48705,
        -144553447108460.38,
        -94801589210.09639,
        -101800626404.02487,
        512397905128.9524,
        1325800667725.2637,
        740598389859.8689,
        -22442874232518.45,
        132602978622093.31,
        -73599487014.67561,
        868000162641.1951,
        -11801746157.51554,
        -64403464237.137146,
        -88216916341684.72,
        -115201717476.83739,
        -60801648271.57454,
        671198364729.7336,
        744198611149.2236,
        519598431736.3113,
        -116801798048.57983,
        6813259663400.957,
        -93799327184.31033,
        5515398328712.629,
        -75398939286.48705,
        -75398939286.48705,
        -98401573211.33287,
        -119602548363.94254,
        -89401490182.06161,
        -80798951544.41391,
        1325800667725.2637,
        516600848773.5985,
        126311842197121.95,
        -6047308564413.77,
        -73599487014.67561,
        5515398328712.629,
        -64403464237.137146,
        -75398939286.48705,
        730001329152.6735,
        644889598199469.1,
        -58201571209.08031,
        497996949723.25183,
        742198691326.2673,
        738198309937.7433,
        1082398839054.9799,
        741798551669.6268,
        742198691326.2673,
        703398697804.7936,
        -75398939286.48705,
        -75398939286.48705,
        -44979346760544.81,
        -38372050099786.02,
        715798811541.776,
        105417062739373.73,
        1519398789182.8787,
        740598389859.8689,
        -54401628571.23161,
        188817281355526.56,
        1077199223368.1995,
        868000162641.1951,
        -11801746157.51554,
        -75398939286.48705,
        -111934784333284.12,
        1287402477392.437,
        544798811276.0294,
        188406079769965.5,
        742198691326.2673,
        738198309937.7433,
        719800706037.1626,
        262798598673.21948,
        1077199223368.1995,
        868000162641.1951,
        -64403464237.137146,
        -64403464237.137146,
        -78401605345.45149,
        -56834511133812.1,
        -102400049732.43076,
        -71002100075.49431,
        1325800667725.2637,
        516600848773.5985,
        531200647912.6078,
        51312349663218.84,
        -349113601457747.5,
        868000162641.1951,
        -11801746157.51554,
        -75398939286.48705,
        -105799400683.69623,
        -117003910399.45255,
        -190365616789093.88,
        -107799148641.14754,
        744198611149.2236,
        -193401833377.98972,
        -121201732208.0515,
        716600850063.4355,
        511198307026.5256,
        868000162641.1951,
        -11801746157.51554,
        -64403464237.137146,
        -79801340548.44446,
        524196610798.3323,
        -64599411709.18646,
        -91399204137.4668,
        1325800667725.2637,
        516600848773.5985,
        -328948850764472.2,
        694598537593.7567,
        511198307026.5256,
        868000162641.1951,
        -64403464237.137146,
        -75398939286.48705,
        -65017426545518.66,
        51095949462515.03,
        -58601608929.51662,
        151235395550089.8,
        1325800667725.2637,
        740598389859.8689,
        -74215711005251.31,
        4436999713015.725,
        1077199223368.1995,
        5515398328712.629,
        -64403464237.137146,
        -64403464237.137146,
        -89015089322194.34,
        1299982201887628.0,
        740198731319.3475,
        -103599044712.73538,
        1325800667725.2637,
        516600848773.5985,
        -144879810031806.38,
        1091400043652.5579,
        1077199223368.1995,
        868000162641.1951,
        -64403464237.137146,
        -64403464237.137146,
        -127201545502.27301,
        378291739248617.9,
        267798478630.33865,
        -112803129341.91219,
        1325800667725.2637,
        740598389859.8689,
        295198452300.28107,
        694797928602.806,
        -73599487014.67561,
        5515398328712.629,
        -64403464237.137146,
        -75398939286.48705,
        37381800248213.07,
        -112202032330.30971,
        318598570542.49915,
        201057273564270.5,
        1325800667725.2637,
        516600848773.5985,
        1867799227846.9692,
        1313798832123.67,
        742198691326.2673,
        703398697804.7936,
        -64403464237.137146,
        -64403464237.137146,
        305197884324.8626,
        -37211112087574.93,
        733800953386.6808,
        50083147537695.66,
        1325800667725.2637,
        516600848773.5985,
        1288598021032.4597,
        3067199723789.644,
        -73599487014.67561,
        868000162641.1951,
        -11801746157.51554,
        -64403464237.137146,
        -397046878356716.25,
        -100398977601.6371,
        696000588970.3058,
        -131802189801.5656,
        744198611149.2236,
        -193401833377.98972,
        1068599403443.1719,
        674598529310.8776,
        -73599487014.67561,
        5515398328712.629,
        -64403464237.137146,
        -64403464237.137146,
        -22849274498199.312,
        721200789483.4607,
        -73999853245.311,
        50082347833366.72,
        1325800667725.2637,
        516600848773.8915,
        488397590997.1898,
        504456185863871.2,
        511198307026.5256,
        5515398328712.629,
        -64403464237.137146,
        -75398939286.48705,
        -135408137130512.17,
        -51199068777.55793,
        -85801571200.4725,
        539400831146.31104,
        1325800667725.2637,
        516600848773.5985,
        -75202484722.44429,
        1481399070770.9346,
        -73599487014.67561,
        5515398328712.629,
        -64403464237.137146,
        -64403464237.137146,
        -90801567492.96394,
        -121401379460.5668,
        125897241703278.19,
        715201111702.5398,
        1325800667725.2637,
        516600848773.5985,
        -111401778622.49614,
        2026399131425.2222,
        1077199223368.1995,
        868000162641.1951,
        -64403464237.137146,
        -75398939286.48705,
        -471758502855851.2,
        859798991717.4331,
        -127800931091.34007,
        -103002230882.90108,
        1325800667725.2637,
        516600848773.5985,
        -358509679636880.06,
        -55613108914153.47,
        742198691326.2673,
        1934401501454.1685,
        -64403464240.137146,
        -75398939286.48705,
        -124201685875.0819,
        488598936501.4146,
        -87641089039150.73,
        208766568878132.88,
        744198611149.2236,
        -193401833377.98972,
        349528733906927.94,
        -76799371637.374,
        511198307026.5256,
        868000162641.1951,
        -11801746157.51554,
        -64403464237.137146,
        -555301356723779.0,
        138686713280196.75,
        -113599512988.06133,
        304401148469.9763,
        742198691326.2673,
        738198309937.7433,
        903401511176.6519,
        1702399862040.001,
        742198691326.2673,
        703398697804.7936,
        -75398939286.48705,
        -64403464237.137146,
        -88429090287697.31,
        216526064698480.7,
        -86999692998.99739,
        -72199030316.1172,
        1325800667725.2637,
        516600848773.5985,
        -129437091661824.34,
        1057065255308019.2,
        -73599487014.67561,
        5515398328712.629,
        -75398939286.48705,
        -64403464237.137146,
        -6383201817322.868,
        -14406117422084.941,
        -74601787135.40572,
        511601129594.66394,
        1519398789182.8787,
        516600848773.5985,
        512598591624.16516,
        152874398082371.0,
        1077199223368.1995,
        868000162641.1951,
        -64403464237.137146,
        -64403464237.137146,
        -83601860154.82103,
        238590037548874.12,
        -77801530569.346,
        -106203072601.08324,
        744198611149.2236,
        -193401833377.98972,
        875598649687.5635,
        731198651933.0494,
        1077199223368.1995,
        868000162641.1951,
        -64403464237.137146,
        -75398939286.48705,
        -57454493562718.56,
        -108801658792.47571,
        747400988645.2739,
        532598510601.6129,
        1519398789182.8787,
        740598389859.8689,
        504198943748.74243,
        -57601770364.74478,
        -73599487014.67561,
        5515398328712.629,
        -64403464237.137146,
        -64403464237.137146,
        -132432294921192.06,
        234994529534077.5,
        715398488949.152,
        838998751690.8893,
        1325800667725.2637,
        740598389859.8689,
        516400656930.94574,
        741798551640.09,
        1077199223368.1995,
        5515398328712.629,
        -75398939286.48705,
        -75398939286.48705,
        -72201416091.01997,
        149879797418564.9,
        -66001609431.93117,
        -81399330681.49786,
        744198611149.2236,
        519598431736.3113,
        1247309529880559.0,
        708201632231.6401,
        -73599487014.67561,
        868000162641.1951,
        -64403464237.137146,
        -64403464237.137146,
        -89015090897320.77,
        -89999471852.7008,
        -120199795286.30865,
        477796870721.0802,
        1325800667725.2637,
        516600848773.5985,
        295398856709.29565,
        18198316973540.21,
        511198307026.5256,
        5515398328712.629,
        -64403464237.137146,
        -64403464237.137146,
        -91601741964.22572,
        -56199150424.27034,
        704998509976.0239,
        515800850334.97925,
        744198611149.2236,
        519598431736.3113,
        1111598440629.535,
        52250525499980.09,
        742198691326.2673,
        703398697804.7936,
        -75398939286.48705,
        -75398939286.48705,
        -67399490646.65434,
        461360847895827.25,
        -90999410969.9177,
        -83602692264.95013,
        1325800667725.2637,
        740598389859.8689,
        -190202970209963.56,
        70587857227442.4,
        -73599487014.67561,
        868000162641.1951,
        -64403464237.137146,
        -64403464237.137146,
        -92599504543.65013,
        -113801341372.35287,
        -75001591163.79716,
        -111602874738.57645,
        1325800667725.2637,
        516600848773.5985,
        -99201705359.02179,
        1293798624083.5645,
        -73599487014.67561,
        868000162641.1951,
        -64403464237.137146,
        -75398939286.48705,
        -94001681295.9317,
        470597123872.67725,
        730800647989.7683,
        -63399389296.35599,
        1325800667725.2637,
        740598389859.8689,
        486800742208.1221,
        691398570134.2328,
        511198307026.5256,
        868000162641.1951,
        -11801746157.51554,
        -75398939286.48705,
        -36248512527051.67,
        -131001345886.8972,
        -119201690722.68286,
        -74599588961.84364,
        1325800667725.2637,
        740598389859.8689,
        513800432411.1758,
        43594689506634.2,
        1322597258747.5027,
        1934401501454.1685,
        -64403464240.137146,
        -64403464237.137146,
        -49212910871889.58,
        163245571764132.2,
        -110201007741.37926,
        -68201710253.16701,
        1325800667725.2637,
        740598389859.8689,
        665199022179.5665,
        679598584145.5052,
        -73599487014.67561,
        5515398328712.629,
        -75398939286.48705,
        -64403464237.137146,
        -453438304965395.94,
        -61601690522.91432,
        728600509064.6316,
        508197970476.2357,
        1325800667725.2637,
        516600848773.8915,
        128386399152206.88,
        -108999391041.21138,
        511198307026.5256,
        5515398328712.629,
        -64403464237.137146,
        -75398939286.48705,
        -29663892175352.684,
        -118001219606.9336,
        -87399552447.93114,
        518401829576.10376,
        1519398789182.8787,
        740598389859.8689,
        13995110200868.994,
        -70398771325.64845,
        -73399487024.27675,
        5515398328712.629,
        -75398939286.48705,
        -75398939286.48705,
        -576270447120483.2,
        1061399319702.8857,
        742198611057.4456,
        297596748530.9962,
        742198691326.2673,
        519598431736.3113,
        870998907248.1691,
        -86799095331.17477,
        -73599487014.67561,
        868000162641.1951,
        -11801746157.51554,
        -64403464237.137146,
        85612484102676.25,
        33085682066899.258,
        -150466901806358.12,
        33048484791259.75,
        744198611149.2236,
        -193401833377.98972,
        -72401687737.46133,
        713798536455.348,
        511198307026.5256,
        5515398328712.629,
        -75398939286.48705,
        -64403464237.137146,
        -149215111662079.2,
        500398666060.9613,
        736798690750.7578,
        -60401649003.21832,
        1325800667725.2637,
        516600848773.5985,
        -564840952643040.2,
        504198322824.5902,
        511198307026.5256,
        868000162641.1951,
        -11801746157.51554,
        -75398939286.48705,
        695598870462.9811,
        -118199203195.78784,
        719198969948.5289,
        504428036615347.56,
        1325800667725.2637,
        740598389859.8689,
        877598201657.9636,
        1289999079675.0415,
        1077199223368.1995,
        5515398328712.629,
        -64403464237.137146,
        -75398939286.48705,
        709401012508.6434,
        -92200548795.34668,
        527998811625.702,
        -110003110383.8382,
        1325800667725.2637,
        516600848773.5985,
        4477399246593.531,
        1308198595087.1462,
        -73599487014.67561,
        868000162641.1951,
        -64403464237.137146,
        -64403464237.137146,
        -84399472427.44887,
        -102800954755.70435,
        722200590007.2512,
        -122603593153.79196,
        744198611149.2236,
        -193401833377.98972,
        531400992596.7975,
        71418057660878.62,
        -73599487014.67561,
        5515398328712.629,
        -75398939286.48705,
        -75398939286.48705,
        -107384324173720.53,
        -103402722270.38055,
        -79801408411.1895,
        2268998270125.8164,
        744198611149.2236,
        519598431736.3113,
        -190789170022163.8,
        72185857226606.03,
        1077199223368.1995,
        868000162641.1951,
        -11801746157.51554,
        -75398939286.48705,
        -149214110224677.75,
        -57025111811096.25,
        -98799608026.73846,
        -77199510849.8458,
        1325800667725.2637,
        740598389859.8689,
        466597919599.9529,
        215832769873567.47,
        -93799327184.31033,
        868000162641.1951,
        -64403464237.137146,
        -64403464237.137146,
        -35838312401239.41,
        534202729426947.56,
        -53799311590.971695,
        276196579836.7207,
        744198611149.2236,
        519598431736.3113,
        680998909251.0077,
        689199004727.9305,
        511198307026.5256,
        868000162641.1951,
        -11801746157.51554,
        -75398939286.48705,
        -56601568238.47018,
        -62001868575.40063,
        717800985267.6907,
        741400948805.4635,
        1325800667725.2637,
        516600848773.5985,
        -148054333888992.16,
        -57601770325.40494,
        511198307026.5256,
        868000162641.1951,
        -11801746157.51554,
        -75398939286.48705,
        -166668739959710.38,
        599865398415353.4,
        710598736742.3286,
        738200830650.4756,
        1325800667725.2637,
        740598389859.8689,
        -48929606223558.01,
        -57601770357.59576,
        -73599487014.67561,
        5515398328712.629,
        -64403464237.137146,
        -75398939286.48705,
        -135181537452187.78,
        497598651062.52795,
        1846599448354.4136,
        641597493574.5223,
        744198611149.2236,
        -193401833377.98972,
        515201168893.776,
        1665198990338.9426,
        742198691326.2673,
        703398697804.7936,
        -75398939286.48705,
        -75398939286.48705,
        725801117932.4387,
        629996491620.082,
        730200767310.5957,
        509400791422.1051,
        1325800667725.2637,
        740598389859.8689,
        469998658235.7923,
        37237485261325.75,
        742198691326.2673,
        703398697804.7936,
        -64403464237.137146,
        -64403464237.137146,
        -88201562746.7162,
        483798412943.89734,
        735600947522.5327,
        -116002270104.1537,
        744198611151.5708,
        519598431736.3113,
        1065599540834.6794,
        -89599384376.11435,
        511198307026.5256,
        868000162641.1951,
        -64403464237.137146,
        -64403464237.137146,
        702601316306.0502,
        -89799432046.04327,
        701998892634.816,
        735798709484.6129,
        744198611149.2236,
        -193401833377.98972,
        715198838351.7161,
        -66598470539.75545,
        -73399487024.27675,
        5515398328712.629,
        -64403464237.137146,
        -75398939286.48705,
        -128401601881.75175,
        72081169955512.58,
        542198690955.1852,
        -70999281221.306,
        1325800667725.2637,
        739198469654.0627,
        744000948748.0813,
        741798551663.0206,
        1077199223368.1995,
        868000162641.1951,
        -64403464237.137146,
        -75398939286.48705,
        478999024068.9921,
        -123802344269.96367,
        -71401408209.64111,
        701001032355.9375,
        1325800667725.2637,
        740598389859.8689,
        -32854584835490.914,
        740998651748.8907,
        742198691326.2673,
        703398697804.7936,
        -75398939286.48705,
        -64403464237.137146,
        672398716150.4043,
        42174491782514.19,
        299198731367.0913,
        50274200819198.59,
        744198611149.2236,
        519598431736.3113,
        92720465892783.28,
        -88999335318.44888,
        -73599487014.67561,
        868000162641.1951,
        -64403464237.137146,
        -75398939286.48705,
        -99201357697.54614,
        67915566124002.72,
        -157601548571.59155,
        -94398998719.66447,
        744198611149.2236,
        519598431736.3113,
        -150616101328928.12,
        -117801424768.19337,
        511198307026.5256,
        868000162641.1951,
        -11801746157.51554,
        -64403464237.137146,
        -71001689203.41402,
        66516865921951.92,
        496998650738.2241,
        -100999059579.60454,
        1325800667725.2637,
        740598389859.8689,
        478398865509.9477,
        721200788611.4607,
        742198691326.2673,
        703398697804.7936,
        -75398939286.48705,
        -64403464237.137146,
        -122802971747.65086,
        -123201731512.86449,
        494600331989.1372,
        723597807600.6571,
        1325800667725.2637,
        740598389859.8689,
        -110647312449810.11,
        308215332376813.4,
        -73599487014.67561,
        868000162641.1951,
        -64403464237.137146,
        -75398939286.48705,
        -88809515984145.86,
        -118602066613.37381,
        -61401608788.319565,
        -79198749381.90143,
        744198611149.2236,
        519598431736.3113,
        742198691326.2673,
        511198307026.5256,
        1325800667725.2637,
        -11801708899.245975,
        84020131267909.62,
        296196922888.5685,
        2479998078268.285,
        84020131267909.62,
        -193420084070.7439,
        -166993897782.24606
    ]
}