{
    "weights": {
        "onDefense": -0.0,
        "stop": 0.0,
        "enemy1_num_carried": -0.0,
        "enemy2_num_carried": 0.0,
        "teammate_food_carried": -0.001999999980402624,
        "reverse": -0.0010000000102018366,
        "invaderDistance": -0.01600001000349613,
        "distance_to_start": -0.06999999931399184,
        "num_invaders": -0.0,
        "distance_from_middle": -0.00499999995090656,
        "distance_from_closest_invader": -0.01600001000349613,
        "scared_distance": -0.003000000030939157,
        "distance_to_home": -0.00999999990211312,
        "invader_captured": -0.0010000049902054607,
        "food_protected": -0.001999999980402624,
        "ambush_location_x": -0.020000012504370158,
        "ambush_location_y": -0.012000007502722097,
        "teammate_location_x": -0.01599999984312099,
        "teammate_location_y": -0.000999999990201312,
        "opponent1_location_x": -0.004999999951003064,
        "opponent1_location_y": -0.0019999999804012256,
        "opponent2_location_x": -0.004999999951003064,
        "opponent2_location_y": -0.002999999970601838,
        "successor_score": 0.0,
        "num_ghosts_one_step_away": 0.0,
        "distance_from_closest_ghost": 0.0,
        "is_home": 0.0,
        "distanceToFood": 0.0,
        "food_eaten": 0.0,
        "avoided_ghost": -1.9999999806969264e-13,
        "carrying_food": 0.0,
        "distance_to_capsule": 0.0,
        "game_score": -0.02599999974523411,
        "bias": -0.000999999990201312
    },
    "base": {
        "epsilon": 0.6,
        "alpha": 0.1,
        "discount": 0.9
    },
    "current": {
        "epsilon": 0.6,
        "alpha": 0.1,
        "discount": 0.9
    },
    "num_episodes": 4000,
    "latest_reward": -114700009238.47931,
    "epsilon": [
        0
    ],
    "alpha": [
        0.1
    ],
    "discount": [
        0.9
    ],
    "total_reward": [
        0,
        0,
        0,
        0,
        0,
        0,
        0,
        0,
        0,
        0,
        0,
        0,
        0,
        0,
        0,
        0,
        0,
        0,
        0,
        0,
        0,
        0,
        -150600021487.2414,
        -154019994391.72562,
        -143219985382.95575,
        -152019968440.68127,
        -128719976459.91315,
        -78919992175.6799,
        -165859999490.60043,
        -166040023738.60046,
        -151860022955.26727,
        -90335536047.06786,
        -90340135897.42023,
        -133520045059.70282,
        -129920045647.20465,
        -113920079403.38766,
        -122120041268.94849,
        -31200035124.519806,
        -61640143853.189064,
        -72359992408.9745,
        -33400032474.71501,
        -33400039745.02499,
        -7400009185.479314,
        -36200031047.34914,
        -122159894990.60014,
        -131399870375.93362,
        -102980024405.26714,
        -126339980869.31467,
        -112519946723.26703,
        -134680031184.02888,
        -124320006506.23926,
        -72360164071.03337,
        -134520005319.37543,
        -122160057021.33124,
        -79579988283.07407,
        -93960006036.90288,
        -131719964758.55225,
        -123160002514.35463,
        -129140020096.54376,
        -137779997783.56503,
        -132539985001.45271,
        -98000003432.84296,
        -129140031400.3022,
        -91579992049.08383,
        -3100009098.479314,
        -19200009125.479313,
        -3400009099.479314,
        -38600009407.79797,
        -127559980786.14629,
        -137519955046.50717,
        -129539967454.9471,
        -129560006593.81677,
        -129560006593.81677,
        -112960071979.70969,
        -129740020452.66457,
        -130720018506.6081,
        -141340121478.5716,
        -9000009111.479313,
        -73380067472.626,
        -141960066774.43552,
        -85160010831.6698,
        -138060071710.95932,
        -124760061170.68086,
        -136579974925.99525,
        -138539984560.37524,
        -134759989028.01491,
        -133699952378.32135,
        -115380002170.36946,
        -69980025117.49406,
        -140539990784.42377,
        -131960005131.74023,
        -136920006365.8426,
        -140899981579.91086,
        -135099995963.73312,
        -27200042884.37234,
        -113119983830.86609,
        -141419986052.09155,
        -43599995358.64908,
        -132539987673.01065,
        -118159969862.25801,
        -50579999886.46459,
        -69379993141.9809,
        -86359992358.31387,
        -39580008924.22643,
        -119760067969.87239,
        -63800008059.4885,
        -10800009113.479313,
        -134419995649.38649,
        -134739934730.50874,
        -18380009534.60741,
        -111380621721.14836,
        -74180613462.73444,
        -73560553172.83755,
        -119600009249.47931,
        -144560023033.47934,
        -84600554014.14598,
        -145580014154.81268,
        -109400009259.47931,
        -66800322952.70793,
        -18000578402.331017,
        -154000004234.81256,
        -67200743746.876144,
        -125900009284.47931,
        -85760214159.28888,
        -39580259680.54759,
        -49600485954.8802,
        -54860482458.57421,
        -136700028371.41641,
        -19160871684.561337,
        -66300313021.91941,
        -23600298836.841988,
        -131400008741.5318,
        -21800339449.378735,
        -131600005938.14594,
        -141580010170.81265,
        -99400281243.47931,
        -121100009246.47931,
        -103600275945.50735,
        -89400351910.81909,
        -129199996829.97137,
        -143900023165.56293,
        -128200010269.47931,
        -134600009299.47931,
        -140800009810.03915,
        -131200009392.87814,
        -140200009210.146,
        -74980241802.77065,
        -95800009239.47931,
        -56000851375.47931,
        -80200617363.47931,
        -132100020961.14598,
        -59800381512.68968,
        -42380251693.257454,
        -118000022901.94377,
        -120200009287.47931,
        -24600530904.808506,
        -85000390511.34862,
        -114700009238.47931
    ]
}