{
    "weights": {
        "onDefense": -1.0833335111525573e-103,
        "stop": 0.0,
        "enemy1_num_carried": -0.0,
        "enemy2_num_carried": -0.018307695238867237,
        "teammate_food_carried": -3.000001000831381e-243,
        "reverse": -0.0009333335164649488,
        "invaderDistance": -0.014083335630716579,
        "distance_to_start": -0.03769231372689293,
        "num_invaders": -1.0833335111525573e-103,
        "distance_from_middle": -9.333335164516155e-14,
        "distance_from_closest_invader": -0.014083335630716579,
        "scared_distance": -0.01994737057470503,
        "distance_to_home": -0.021538464986715963,
        "invader_captured": -0.002000000089567131,
        "food_protected": -0.012923078992141578,
        "ambush_location_x": -0.017333336161107583,
        "ambush_location_y": -0.011916668610761462,
        "teammate_location_x": -0.011846155742796445,
        "teammate_location_y": -0.014000002241486708,
        "opponent1_location_x": -0.022500000206468668,
        "opponent1_location_y": -0.010500000096352045,
        "opponent2_location_x": -0.025500000233997826,
        "opponent2_location_y": -0.009000000082587467,
        "successor_score": 0.0,
        "num_ghosts_one_step_away": 0.0,
        "distance_from_closest_ghost": 0.0,
        "is_home": 0.0,
        "distanceToFood": 0.0,
        "food_eaten": 0.0,
        "avoided_ghost": -0.003000000091119696,
        "carrying_food": 0.0,
        "distance_to_capsule": 0.0,
        "game_score": -0.007538462745415921,
        "bias": -0.0010769232493451316
    },
    "base": {
        "epsilon": 0.6,
        "alpha": 0.1,
        "discount": 0.9
    },
    "current": {
        "epsilon": 0.6,
        "alpha": 0.1,
        "discount": 0.9
    },
    "num_episodes": 3843,
    "latest_reward": -100807481802.63356,
    "epsilon": [
        0
    ],
    "alpha": [
        0.1
    ],
    "discount": [
        0.9
    ],
    "total_reward": [
        -892344.4424872481,
        688420780934.7554,
        508618916929.16626,
        -75155802861012.75,
        728217902115.8281,
        -73999591320.35498,
        -72999802478.25012,
        672218213623.7444,
        1134238242896.4502,
        688820610366.0947,
        744198611149.2236,
        1077199223368.1995,
        -11801769141.227467,
        -70950429215469.6,
        507267987122081.0,
        -70950429215469.6,
        -193219934243.53058,
        -167009610430.50433,
        1119002293483.0288,
        -73647205111642.5,
        831789252791282.1,
        723802044950.7389,
        1331201688433.164,
        744200311106.7236,
        740600090480.0131,
        286803080184.01166,
        -16101770590.267075,
        708400351519.9695,
        295402298587.80206,
        580300230978.1592,
        -98801143008.24823,
        -129601668102.59859,
        -89801194083.54797,
        -78202143814.49052,
        1119002293483.0288,
        515802431336.8092,
        -604074403843773.5,
        710201012218.0807,
        -167009610430.50433,
        -193420163270.7439,
        -193420163270.7439,
        -193420163270.7439,
        1866602626910.0535,
        16533666626927.96,
        530600616328.7637,
        118894216944365.47,
        744200311106.7236,
        740600090480.0131,
        128307845349541.78,
        43382094502997.28,
        -193220092643.53058,
        -166993897782.24606,
        -167009610430.50433,
        -193420163270.7439,
        704402465033.5029,
        -8782809666883.844,
        526402294788.46216,
        750667800175537.0,
        744200311106.7236,
        515802431336.8092,
        -572729700643940.4,
        1084801200566.0635,
        -167009610430.50433,
        -166993897782.24606,
        -167009610430.50433,
        -193420163270.7439,
        -357262859363680.6,
        -80599641591.51593,
        -65001605853.41298,
        524399789356.2096,
        744200311106.7236,
        515802431336.8092,
        308800314674.49084,
        1306402139217.6594,
        -193220092643.53058,
        -193420163270.7439,
        -167009610430.50433,
        -193420163270.7439,
        261000514904.3915,
        -23889376402096.297,
        -89048890314157.44,
        -70602110175.34277,
        744200311106.7236,
        515802431336.8092,
        -49212710614950.46,
        1081202222252.552,
        -167009610430.50433,
        -166993897782.24606,
        -193420163270.7439,
        -167009610430.50433,
        683000995214.029,
        -33208836652889.426,
        -113799834023.49352,
        -94402346838.61678,
        744200311106.7236,
        515802431336.8092,
        -75003217557.21014,
        723002450598.413,
        -193220092643.53058,
        -193420163270.7439,
        -193420163270.7439,
        -167009610430.50433,
        899399876865.0431,
        249896196513004.38,
        -79401681461.72655,
        485202723211.4972,
        1119002293483.0288,
        740600090480.0131,
        -148846409359088.5,
        288402578097.15216,
        -193220092643.53058,
        -166993897782.24606,
        -167009610430.50433,
        -167009610430.50433,
        -97722617759115.16,
        -112804092679.22444,
        -79801602864.11151,
        71176662354895.62,
        744200311106.7236,
        740600090480.0131,
        -76401709600.23692,
        -109200931463.9773,
        -193220092643.53058,
        -193420163270.7439,
        -193420163270.7439,
        -193420163270.7439,
        -51226702641739.5,
        470807271931632.25,
        -75999488938.88441,
        208791304520997.44,
        744200311106.7236,
        515802431336.8092,
        -150128401577044.25,
        -77799807838.18665,
        -167009610430.50433,
        -166993897782.24606,
        -167009610430.50433,
        -167009610430.50433,
        488000935041.66156,
        -111603860205.86182,
        732600573186.2787,
        207790709240778.7,
        1119002293483.0288,
        740600090480.0131,
        -580452587677141.5,
        733800251447.3524,
        -193220092643.53058,
        -193420163270.7439,
        -193420163270.7439,
        -193420163270.7439,
        -75201538673.86916,
        475799774644.3894,
        703400496388.0336,
        -69399347616.23535,
        1119002293483.0288,
        740600090480.0131,
        -29710799264168.65,
        297198299543.0587,
        -167009610430.50433,
        -166993897782.24606,
        -167009610430.50433,
        -193420163270.7439,
        -130126199271481.17,
        150289398342181.28,
        -443789042039463.5,
        -105598838918.74162,
        744200311106.7236,
        740600090480.0131,
        290400247522.808,
        300998277094.48004,
        -167009610430.50433,
        -193420163270.7439,
        -167009610430.50433,
        -193420163270.7439,
        -59301566087.26854,
        744200311106.7236,
        -27798929369.55159,
        693601558778.6078,
        727600147999.3993,
        34623282360101.523,
        499797069718.3113,
        724223199909.0217,
        550209594919.7266,
        504610514528.6666,
        549413657384.6316,
        602091731181174.9,
        520172113179.34436,
        580939616362741.2,
        401471217276065.44,
        1009738983394.5825,
        367662865053571.2,
        525200728496.8721,
        -55801745778.47211,
        -84401768667.49852,
        -94202407533.14479,
        536400988708.18835,
        718998952242.6716,
        709601150461.8057,
        -37299330829.599754,
        734620497961.9037,
        262458363145737.0,
        505620696119.5131,
        296020590738.7494,
        744218310658.7236,
        -71199394270.3025,
        498240226147.47943,
        50531567762272.875,
        526018635072.29285,
        -63129276494180.25,
        -62801377482.746216,
        -98202403399.74696,
        744218310658.7236,
        1114420539525.5469,
        -394453186657296.94,
        -133201072806.08932,
        -167009431443.36087,
        -193420084070.7439,
        -193420084070.7439,
        -193420084070.7439,
        518617324164.83386,
        358407588989380.2,
        738620813921.302,
        484416903811.01776,
        1114238373982.3857,
        1114420539525.5469,
        -75201691738.13995,
        -42063144902200.22,
        -167009431443.36087,
        -193420084070.7439,
        -193420084070.7439,
        -193420084070.7439,
        -105201387250.02907,
        292211417734015.3,
        733218191773.7773,
        -146202245627.09894,
        1114238373982.3857,
        -71199394270.3025,
        1083039600170.4473,
        70182258337641.68,
        -193219934243.53058,
        -166993803462.24606,
        -167009431443.36087,
        -167009431443.36087,
        -75179533222.86021,
        70167258901836.78,
        -68401668175.08925,
        1296440572893.1218,
        744218310658.7236,
        1114420539525.5469,
        -268619651478232.5,
        117556323030199.53,
        -167009431443.36087,
        -166993803462.24606,
        -167009431443.36087,
        -193420084070.7439,
        -93201471210.11827,
        694618427051.083,
        -58199298594.78356,
        -87382046447.26076,
        1114238373982.3857,
        1114420539525.5469,
        -149225710340910.44,
        507418872130.1727,
        -193219934243.53058,
        -193420084070.7439,
        -193420084070.7439,
        -193420084070.7439,
        207461527140866.72,
        405385808910693.1,
        -82599844018.09247,
        583193351109338.1,
        1114238373982.3857,
        -71199394270.3025,
        -1034239821084487.2,
        58203895508812.67,
        -167009431443.36087,
        -166993803462.24606,
        -167009431443.36087,
        -193420084070.7439,
        277818737987.83594,
        499869797425768.9,
        -66401517665.73399,
        -100202218019.7373,
        1114238374115.7192,
        -71199394270.3025,
        -68137099610921.375,
        1082439234524.1946,
        -167009431443.36087,
        -166993803462.24606,
        -167009431443.36087,
        -193420084070.7439,
        734820594486.3333,
        474638031393.72266,
        -76999556247.9154,
        478617547518.6482,
        744218310658.7236,
        -71199394270.3025,
        -214218910767629.25,
        292615148204.8923,
        -193219934243.53058,
        -193420084070.7439,
        -193420084070.7439,
        -193420084070.7439,
        -191185578887912.1,
        97433962018189.1,
        41093470428443.766,
        -88202157445.77905,
        744218310658.7236,
        1114420539525.5469,
        679638345531.5465,
        -57025275124016.65,
        -167009431443.36087,
        -193420084070.7439,
        -193420084070.7439,
        -167009431443.36087,
        -97401470307.0249,
        210186058244948.88,
        720020514606.0391,
        -97402708242.32439,
        1114238373982.3857,
        1114420539525.5469,
        4686238494034.6875,
        43745744866753.15,
        -167009431443.36087,
        -193420084070.7439,
        -167009431443.36087,
        -193420084070.7439,
        -314282184132000.3,
        705240642041.667,
        743218316357.8835,
        -70599068885.70393,
        744218310658.7236,
        1114420539525.5469,
        489617836014.3623,
        -6856075045317.078,
        -167009431443.36087,
        -193420084070.7439,
        -167009431443.36087,
        -193420084070.7439,
        -136182499614.29533,
        42788690352953.18,
        256418097456.05026,
        187424479718986.47,
        1114238373982.3857,
        -71199394270.3025,
        60248814720603.03,
        14234458358487.652,
        -167009431443.36087,
        -193420084070.7439,
        -167009431443.36087,
        -193420084070.7439,
        688018329888.3534,
        293020214530.5393,
        -61799248418.516785,
        -22716317752064.06,
        744218310658.7236,
        1114420539525.5469,
        -55787428391363.32,
        41391598190687.664,
        -167009431443.36087,
        -193420084070.7439,
        -167009431443.36087,
        -193420084070.7439,
        -89601326357.18886,
        656616866346.4735,
        -60601588512.69049,
        910618194648.9244,
        744218310658.7236,
        -71199394270.3025,
        -135590877910275.03,
        189781957315293.94,
        -167009431443.36087,
        -166993803462.24606,
        -167009431443.36087,
        -193420084070.7439,
        -137401649361.78737,
        -118801864471.2839,
        -76001906947.6663,
        -97403009561.55832,
        744218310658.7236,
        -71199394270.3025,
        713018376297.1428,
        -28603901399967.96,
        -193219934243.53058,
        -166993803462.24606,
        -193420084070.7439,
        -193420084070.7439,
        -96601668899.29167,
        151385750211013.03,
        -80199458365.51134,
        -121002466887.79434,
        744218310658.7236,
        -71199394270.3025,
        -91801690335.25166,
        -77199529130.53064,
        -193219934243.53058,
        -166993803462.24606,
        -193420084070.7439,
        -167009431443.36087,
        -149221712043180.3,
        -93999471756.23509,
        -79001223713.36528,
        105405503457107.08,
        744218310658.7236,
        -71199394270.3025,
        -29701428049763.32,
        303820643998.38513,
        -167009431443.36087,
        -166993803462.24606,
        -193420084070.7439,
        -167009431443.36087,
        -101401476520.56119,
        357829295346921.0,
        -107601444912.09384,
        680616383837.7949,
        744218310658.7236,
        -71199394270.3025,
        -357062449131917.4,
        1484458611077.5574,
        -193219934243.53058,
        -193420084070.7439,
        -193420084070.7439,
        -167009431443.36087,
        483818167523.6418,
        727925335657531.2,
        -57601500696.18075,
        -97603298567.18466,
        744218310658.7236,
        1114420539525.5469,
        1081236798391.2195,
        1064858105307.1412,
        -193219934243.53058,
        -166993803462.24606,
        -193420084070.7439,
        -193420084070.7439,
        -148812491080407.62,
        -91379151169.66588,
        -77401098323.21019,
        1301237273974.8994,
        1114238373982.3857,
        1114420539525.5469,
        -178691829509345.56,
        49691167919720.36,
        -167009431443.36087,
        -193420084070.7439,
        -167009431443.36087,
        -193420084070.7439,
        24606620680998.75,
        41117629260867.84,
        -141201520493.0303,
        -99802936476.67166,
        1114238373982.3857,
        1114420539525.5469,
        497818267482.29517,
        277017472545.8829,
        -193219934243.53058,
        -166993803462.24606,
        -193420084070.7439,
        -167009431443.36087,
        906637955467.5955,
        1174864941816651.5,
        -453044684866589.1,
        525817670104.5404,
        1114238373982.3857,
        1114420539525.5469,
        -29116361575152.797,
        221992118996917.4,
        -167009431443.36087,
        -166993803462.24606,
        -193420084070.7439,
        -193420084070.7439,
        1662836357993.1052,
        118310762501074.19,
        -75401104261.5694,
        -79001920157.93732,
        1114238373982.3857,
        -71199394270.3025,
        -35578097935348.78,
        1459056602025.3794,
        -193219934240.53058,
        -166993803462.24606,
        -167009431443.36087,
        -193420084070.7439,
        701438652899.0559,
        415254013363186.25,
        -80601666423.4533,
        -107002816428.49844,
        744218310658.7236,
        1114420539525.5469,
        496020251178.3577,
        1502258234694.1719,
        -167009431443.36087,
        -193420084070.7439,
        -167009431443.36087,
        -193420084070.7439,
        473218428341.3716,
        -85199946558.56505,
        -67001726634.272865,
        1319638576429.704,
        1114238373982.3857,
        1114420539525.5469,
        -15947039126668.818,
        5203901779498.121,
        -167009431443.36087,
        -166993803462.24606,
        -193420084070.7439,
        -167009431443.36087,
        -122401006372.13277,
        279303160756539.66,
        532220419753.23816,
        480217620878.5195,
        1114238373982.3857,
        -71199394270.3025,
        1086878361021.5262,
        1083676970786.6461,
        -167009431443.36087,
        -193420084070.7439,
        -167009431443.36087,
        -167009431443.36087,
        -82201546068.19868,
        501838456128.63776,
        -59201668952.761345,
        -81399036912.25777,
        744218310658.7236,
        -71199394270.3025,
        1081258232902.3282,
        706002872573294.1,
        -167009431443.36087,
        -193420084070.7439,
        -193420084070.7439,
        -193420084070.7439,
        -133054893851637.31,
        -131782474410.79955,
        727620280668.9866,
        1118840624948.8848,
        744218310658.7236,
        -71199394270.3025,
        477617459660.22345,
        172339654855986.88,
        -167009431443.36087,
        -193420084070.7439,
        -193420084070.7439,
        -193420084070.7439,
        -193722945209792.03,
        610591878635187.0,
        -92401463748.90137,
        -63399287154.91451,
        744218310658.7236,
        1114420539525.5469,
        670238354126.4395,
        42173284862968.45,
        -167009431443.36087,
        -193420084070.7439,
        -193420084070.7439,
        -167009431443.36087,
        -149653811382265.56,
        37983041127425.23,
        -68601585586.34395,
        -80602074935.40218,
        1114238373982.3857,
        -71199394270.3025,
        -148065515010442.4,
        267695059163489.2,
        -193219934243.53058,
        -166993803462.24606,
        -193420084070.7439,
        -167009431443.36087,
        -112001070261.7464,
        -118850959991647.42,
        712220466334.774,
        -117802021887.78493,
        1114238374115.7192,
        -71199394270.3025,
        -59895173829021.13,
        -104781622630.51256,
        -193219934243.53058,
        -166993803462.24606,
        -167009431443.36087,
        -167009431443.36087,
        -97001670813.56223,
        48095373198943.03,
        731218612563.1396,
        -130182733333.41223,
        1114238374115.7192,
        -71199394270.3025,
        525018192153.661,
        724020445026.2638,
        -167009431443.36087,
        -166993803462.24606,
        -167009431443.36087,
        -193420084070.7439,
        -210846871794196.3,
        23511091582693.477,
        716618599826.2023,
        215779629353770.2,
        744218310658.7236,
        -71199394270.3025,
        -69801680223.00214,
        -87399772408.1012,
        -167009431443.36087,
        -193420084070.7439,
        -167009431443.36087,
        -167009431443.36087,
        -88404690647376.78,
        52493789236339.47,
        319420508014.1664,
        -82599151054.10214,
        744218310658.7236,
        1114420539525.5469,
        1480257325611.6208,
        5266656737280.807,
        -193219934240.53058,
        -166993803462.24606,
        -193420084070.7439,
        -167009431443.36087,
        -444871371957169.8,
        70769076689397.25,
        -73999687217.10204,
        -107799106482.1158,
        744218310658.7236,
        1114420539525.5469,
        -80401676695.14793,
        150675058150513.94,
        -193219934243.53058,
        -193420084070.7439,
        -167009431443.36087,
        -167009431443.36087,
        -135990517587194.64,
        685216412355.7448,
        -107201735330.67194,
        -190985251113810.12,
        1114238373982.3857,
        1114420539525.5469,
        -119001667038.08717,
        470609908048854.25,
        -167009431443.36087,
        -193420084070.7439,
        -167009431443.36087,
        -193420084070.7439,
        -133401546277.78229,
        -116200523058.73535,
        -81201687984.47447,
        -105402936054.19049,
        744218310658.7236,
        1114420539525.5469,
        -1095854823430397.8,
        719218351241.3688,
        -193219934243.53058,
        -166993803462.24606,
        -193420084070.7439,
        -167009431443.36087,
        1100440480261.4993,
        -86002002757.69313,
        -111801581155.44414,
        -108382204891.53072,
        744218310825.2375,
        1114420539525.5469,
        -35058004168661.74,
        1115640292228.5942,
        -193219934240.53058,
        -193420084070.7439,
        -167009431443.36087,
        -193420084070.7439,
        266218433800.1073,
        469037558625.1497,
        1512838605066.8345,
        722020469389.209,
        1114238373982.3857,
        -71199394270.3025,
        -139201652197.27982,
        801595318401019.0,
        -167009431443.36087,
        -166993803462.24606,
        -167009431443.36087,
        -167009431443.36087,
        886840692501.7037,
        -115601644631.56276,
        714219111829.6914,
        68833380499327.11,
        1114238374115.7192,
        1114420539525.5469,
        -13943564157470.863,
        165386240572857.44,
        -193219934240.53058,
        -166993803462.24606,
        -193420084070.7439,
        -193420084070.7439,
        -106201521844.6434,
        479416838482.0349,
        510618571473.65857,
        8817571687500.977,
        744218310658.7236,
        -71199394270.3025,
        53596238800269.09,
        77326517843264.4,
        -167009431443.36087,
        -166993803462.24606,
        -167009431443.36087,
        -193420084070.7439,
        -95362897888359.4,
        -70199426543.29767,
        524420230843.0438,
        739418061095.7864,
        744218310658.7236,
        1114420539525.5469,
        517218414956.94073,
        44775190822884.19,
        -193219934240.53058,
        -193420084070.7439,
        -193420084070.7439,
        -193420084070.7439,
        695218407428.3988,
        33043481401408.273,
        728020528089.2831,
        703020835008.5863,
        744218310658.7236,
        1114420539525.5469,
        894458320833.1141,
        51099550297393.03,
        -193219934243.53058,
        -166993803462.24606,
        -167009431443.36087,
        -167009431443.36087,
        -76199581457.49376,
        290817433881.49316,
        1308440590207.684,
        -120755776873235.08,
        744218310658.7236,
        1114420539525.5469,
        -78001672213.53568,
        79463885474502.9,
        -193219934243.53058,
        -166993803462.24606,
        -167009431443.36087,
        -193420084070.7439,
        -149228710830692.5,
        292559979414456.5,
        -56801598704.28751,
        -96599118435.05206,
        744218310825.2375,
        1114420539525.5469,
        471418342577.49603,
        250511440593634.72,
        -167009431443.36087,
        -166993803462.24606,
        -193420084070.7439,
        -167009431443.36087,
        -80449482773793.02,
        -95201870340.81575,
        -427609329438569.1,
        265018206791.61508,
        1114238373982.3857,
        1114420539525.5469,
        523419439639.9425,
        1881477280620.1807,
        -193219934243.53058,
        -166993803462.24606,
        -193420084070.7439,
        -193420084070.7439,
        -122801484345.9873,
        -135001630125.61319,
        -74601490738.3827,
        302017659965.3011,
        1114238373982.3857,
        -71199394270.3025,
        891438103434.8127,
        131711338471404.72,
        -167009431443.36087,
        -166993803462.24606,
        -193420084070.7439,
        -193420084070.7439,
        -133001534180.44926,
        -63117674905855.44,
        705020213030.3546,
        -104201798013.51778,
        744218310658.7236,
        -71199394270.3025,
        503818319587.55896,
        700218262640.9484,
        -167009431443.36087,
        -193420084070.7439,
        -193420084070.7439,
        -167009431443.36087,
        705417373286.6167,
        -114582256209.0879,
        -79801428105.00868,
        731220724562.8788,
        744218310658.7236,
        -71199394270.3025,
        -503258007335362.0,
        51081404035612.53,
        -167009431443.36087,
        -166993803462.24606,
        -167009431443.36087,
        -167009431443.36087,
        405030697687260.1,
        51613630170509.47,
        -78009523157.08165,
        1471840991759.212,
        744218310658.7236,
        1114420539525.5469,
        279003428517713.6,
        671618331775.5675,
        -193219934243.53058,
        -166993803462.24606,
        -167009431443.36087,
        -193420084070.7439,
        -70381704631.25835,
        -116400479634.81718,
        738220649826.42,
        715020673453.0265,
        744218310658.7236,
        -71199394270.3025,
        -149219222772486.1,
        725018291266.8917,
        -167009431443.36087,
        -193420084070.7439,
        -193420084070.7439,
        -193420084070.7439,
        -119581462036.5674,
        482638033733.90295,
        711018580264.3004,
        -60199366639.4829,
        1114238374115.7192,
        1114420539525.5469,
        28024817912399.605,
        731018259749.9816,
        -167009431443.36087,
        -166993803462.24606,
        -193420084070.7439,
        -167009431443.36087,
        -192484373934562.7,
        639817475017.8793,
        717818646607.9471,
        -59401877902.521515,
        1114238373982.3857,
        -71199394270.3025,
        1070458073585.0706,
        -23890756360280.67,
        -193219934243.53058,
        -166993803462.24606,
        -193420084070.7439,
        -167009431443.36087,
        -122201292420.60776,
        -105982063320.41898,
        -74799801898.58585,
        723018072325.2363,
        1114238374115.7192,
        -71199394270.3025,
        -66201697338.94029,
        1067858334389.4341,
        -193219934243.53058,
        -193420084070.7439,
        -193420084070.7439,
        -167009431443.36087,
        -119801407535.7686,
        69095264984152.516,
        717418846669.5472,
        -114202292925.06778,
        1114238374115.7192,
        -71199394270.3025,
        469620530593.48193,
        -66965517905762.66,
        -167009431443.36087,
        -166993803462.24606,
        -193420084070.7439,
        -167009431443.36087,
        -360245668864875.0,
        -24479777452822.42,
        -80000170269.91348,
        558350871356433.44,
        744218310658.7236,
        -71199394270.3025,
        -190377404265880.38,
        -52061095223492.47,
        -167009431443.36087,
        -193420084070.7439,
        -167009431443.36087,
        -167009431443.36087,
        -102801549303.75113,
        480816814445.26715,
        -99999478182.45047,
        188992139825730.75,
        1114238374115.7192,
        1114420539525.5469,
        -47818470778674.336,
        488850763485153.3,
        -167009431443.36087,
        -166993803462.24606,
        -193420084070.7439,
        -167009431443.36087,
        687240460392.3182,
        717020443824.7369,
        -63201666326.97378,
        117707521243213.03,
        744218310658.7236,
        -71199394270.3025,
        -718659381281881.0,
        695640499595.2858,
        -167009431443.36087,
        -193420084070.7439,
        -167009431443.36087,
        -193420084070.7439,
        -87180317070.71835,
        170944868865688.38,
        -78802178731.81456,
        -81799616933.88168,
        744218310658.7236,
        1114420539525.5469,
        -48207071184511.836,
        3096857621651.728,
        -193219934243.53058,
        -166993803462.24606,
        -193420084070.7439,
        -193420084070.7439,
        -85801430580.58235,
        70799678852818.94,
        -79599308726.65367,
        -81199056050.29588,
        1114238373982.3857,
        -71199394270.3025,
        -130600894856.20703,
        651033186992.3475,
        -193219934243.53058,
        -166993803462.24606,
        -167009431443.36087,
        -167009431443.36087,
        -286613451538916.4,
        33009700453382.29,
        -69001286676.28275,
        1293640829276.2336,
        744218310658.7236,
        1114420539525.5469,
        -339528762000498.56,
        151276836894447.72,
        -167009431443.36087,
        -193420084070.7439,
        -193420084070.7439,
        -193420084070.7439,
        -160302515276593.5,
        661615864015.8605,
        -456784701936663.5,
        -108202769756.63158,
        1114238373982.3857,
        -71199394270.3025,
        292418359172.89197,
        314618195673.2336,
        -193219934243.53058,
        -193420084070.7439,
        -167009431443.36087,
        -167009431443.36087,
        -7006688456599.258,
        -122499290552173.42,
        728418809122.6162,
        5602879539254.287,
        1114238374115.7192,
        -71199394270.3025,
        1068638969035.5713,
        1082240594385.8774,
        -167009431443.36087,
        -193420084070.7439,
        -193420084070.7439,
        -167009431443.36087,
        -122801622123.49341,
        150659817690298.0,
        -67801805814.183685,
        647015361998.6558,
        744218310658.7236,
        -71199394270.3025,
        533820132273.8845,
        731018259749.9816,
        -167009431443.36087,
        -193420084070.7439,
        -193420084070.7439,
        -193420084070.7439,
        -72201672168.55875,
        -132783887316.1614,
        738620814755.0337,
        -105402621291.57803,
        744218310658.7236,
        1114420539525.5469,
        52058878340117.1,
        73228209055285.17,
        -193219934243.53058,
        -166993803462.24606,
        -193420084070.7439,
        -193420084070.7439,
        -129601972708.7618,
        -124979346598.4872,
        503618509496.22925,
        -70399585890.34381,
        1114238373982.3857,
        1114420539525.5469,
        -276984492076899.06,
        705218290156.1907,
        -167009431443.36087,
        -193420084070.7439,
        -167009431443.36087,
        -167009431443.36087,
        -31755580529066.434,
        -118799345227.71936,
        -78801630765.88425,
        -72001800903.79402,
        744218310658.7236,
        1114420539525.5469,
        -85201666141.3866,
        1288040697721.819,
        -167009431443.36087,
        -166993803462.24606,
        -167009431443.36087,
        -193420084070.7439,
        -270432851695354.56,
        293612413870.2498,
        289820530734.95197,
        216182793494553.8,
        1114238373982.3857,
        1114420539525.5469,
        4300418320326.958,
        1462038309397.42,
        -193219934243.53058,
        -193420084070.7439,
        -167009431443.36087,
        -167009431443.36087,
        468618421801.09875,
        425417460297.2818,
        711220250633.849,
        188758367937917.25,
        744218310658.7236,
        -71199394270.3025,
        -446574353077014.1,
        105620124030768.22,
        -193219934240.53058,
        -193420084070.7439,
        -193420084070.7439,
        -193420084070.7439,
        -109165886735672.61,
        468418271382.7674,
        -86601460647.23288,
        707620666725.4503,
        744218310658.7236,
        1114420539525.5469,
        -195645072478459.78,
        -70799369854.52255,
        -193219934243.53058,
        -193420084070.7439,
        -193420084070.7439,
        -193420084070.7439,
        -1147736611511838.2,
        -85599434594.43036,
        720220536490.3105,
        50471216512402.62,
        1114238373982.3857,
        1114420539525.5469,
        1251638338317.5503,
        2291638401582.9424,
        -193219934243.53058,
        -193420084070.7439,
        -167009431443.36087,
        -167009431443.36087,
        -80781122229.68387,
        -104801822985.47818,
        -65999270727.28349,
        -89199755749.59615,
        1114238373982.3857,
        -71199394270.3025,
        1679278343573.6978,
        514438222815.12756,
        -193219934243.53058,
        -193420084070.7439,
        -167009431443.36087,
        -193420084070.7439,
        -128981768992.38887,
        117937742980053.95,
        -58201678530.42294,
        318817819927.09375,
        1114238374115.7192,
        -71199394270.3025,
        -191582044250631.22,
        1277237062256.581,
        -193219934243.53058,
        -166993803462.24606,
        -193420084070.7439,
        -167009431443.36087,
        474418418758.63135,
        679016970174.5817,
        727020575843.4867,
        495217955556.771,
        744218310658.7236,
        1114420539525.5469,
        107172968148261.75,
        133118170038573.34,
        -167009431443.36087,
        -166993803462.24606,
        -167009431443.36087,
        -167009431443.36087,
        702218385330.279,
        -82001664523.26802,
        -77801569612.33598,
        42159889985095.414,
        744218310658.7236,
        1114420539525.5469,
        62771019655924.15,
        5603520221701.762,
        -167009431443.36087,
        -193420084070.7439,
        -167009431443.36087,
        -167009431443.36087,
        -150823882858871.47,
        129169311588207.66,
        -78399366259.19205,
        -115804501229.93282,
        744218310658.7236,
        -71199394270.3025,
        521040598143.1708,
        730240191292.0736,
        -193219934243.53058,
        -193420084070.7439,
        -167009431443.36087,
        -167009431443.36087,
        -98781716560.25418,
        -14816992071651.912,
        703018621626.631,
        -76002427366.45013,
        744218310658.7236,
        1114420539525.5469,
        -88801689593.29852,
        245791340732262.94,
        -167009431443.36087,
        -166993803462.24606,
        -167009431443.36087,
        -167009431443.36087,
        169235044000069.97,
        31251867753487.137,
        504217743091.95776,
        -103799200004.24815,
        -31603980004.079407,
        -90799278786.33974,
        702620641201.17,
        30471916636723.54,
        53031384715113.42,
        -74201859981.01422,
        -99802242648.4559,
        693420680362.3242,
        2495303271178.8613,
        83314578908068.6,
        5338041903160.041,
        -58000423729.422554,
        10876049736704.12,
        2727522567359.5156,
        2731405735075.9116,
        2742991764375.4404,
        -59061176907.32,
        -71599483911612.25,
        2742201842507.412,
        -43010790275438.25,
        -59784942512.81961,
        -201811654737922.06,
        5529709284974.953,
        5098581185729.268,
        5318099766176.17,
        -68946566884.5864,
        -67089592955.729385,
        -72664968316.49788,
        4727928602925.768,
        5336599326800.428,
        -156073042427327.8,
        2711212547473.5356,
        -70174229355.02373,
        0,
        -59179253226.29382,
        2738845334988.8643,
        -67004670612.07656,
        2688567768275.376,
        2714257355006.2256,
        2739881028698.806,
        5530808725606.704,
        -35520897080689.66,
        2480185752590.58,
        2706590175725.811,
        -71410579043.66087,
        -110415090451.46739,
        2730485731866.617,
        2520157949316.6216,
        -53186930650.12991,
        -90759476501.25845,
        2734283149725.773,
        78181719009680.89,
        -61725022533.1577,
        2742577774048.5586,
        5517081763623.953,
        2476089511142.0303,
        2745273824720.554,
        7093934616545.262,
        4740614997813.118,
        6911929950829.384,
        2700413219002.092,
        5307713551646.211,
        -53835006012.947754,
        2498186652970.1914,
        2743291684288.8105,
        -110164398636.85393,
        2736929703639.685,
        -87214080226.42332,
        7920640216550.908,
        2708851033524.154,
        2728350035525.9487,
        -385314090929438.4,
        -71577922056.89046,
        2303684432901.8354,
        -63415082849.52061,
        -122779676261.03094,
        197877444632908.03,
        867914388914045.6,
        -63598997427521.44,
        2697924253721.63,
        2733390577922.068,
        -80410923054.23384,
        -61151537918.3818,
        -71560264117.17241,
        -16647829789816.945,
        5111742965987.989,
        -61297271858.25431,
        126726720802395.47,
        2726031917989.996,
        2741558249162.296,
        -59938519950.47198,
        -56865101707.586136,
        363363834233253.9,
        2493775171251.559,
        -209126846097976.84,
        2496514257914.0264,
        2719606526037.462,
        2742033567486.286,
        -67260670040.5193,
        2520946958264.707,
        -61873563603.45287,
        2492961978977.972,
        -91499984735.25153,
        4705245422685.913,
        -208032656502566.16,
        5342561442158.342,
        -58844550637169.11,
        -55100616512.737625,
        -67475379515.872246,
        2728772630224.397,
        -57160622352.59383,
        2740986802871.9395,
        -158600002545174.4,
        2739900076160.139,
        -72239364042.50954,
        5322219370990.52,
        5533092459350.45,
        -66381903777.25719,
        2531914969195.761,
        -76726950079.41835,
        -120979557155.5259,
        2289666287535.8535,
        2734897875451.387,
        189799066831596.2,
        -57652825150.47423,
        4497753638982.882,
        -90474108404.13274,
        5495782942353.208,
        -114198115952426.1,
        2531745097277.0713,
        7685523967115.521,
        -105996544641.3965,
        -59805291098.0194,
        439052520757050.6,
        -89020236724687.72,
        139334910276124.84,
        2729386761573.2495,
        199847139893015.62,
        5310318394336.848,
        2741229221713.186,
        5491869394935.198,
        5081140600111.744,
        -87209246482.73409,
        -113646361552.92502,
        -71816376572.76343,
        2265124684201.705,
        5127801997378.012,
        -97917354975.48936,
        -73297065567.10124,
        2718360664190.801,
        200685051474416.44,
        -6870499357305.002,
        10251427349183.824,
        2706806120339.6294,
        -71448822102.36087,
        2730311379427.7676,
        -59986157989.12642,
        2306211085749.7036,
        -383394863504415.1,
        2740848249259.4414,
        -87504659214.46626,
        2724962829838.781,
        5543158331184.909,
        -58333200022.46913,
        8299405109789.773,
        -84382556361.34991,
        -71862891872.12035,
        -60032843132.76403,
        2743378451020.572,
        -132698649085622.0,
        -75788913015.87315,
        2283476771388.497,
        -93852148432.84756,
        -65956185017.53059,
        2719197409021.6035,
        2741764918020.7285,
        5533926190959.06,
        5130197866242.355,
        -77654962380.74907,
        7118971975248.936,
        -96437197992.30339,
        2686857728349.229,
        -57538519389.91648,
        -97307550546.4946,
        -61167884796.21411,
        -105367516766.78549,
        -450619704514594.56,
        2526081542982.0366,
        2730151479285.505,
        2708508695458.033,
        10702510532315.672,
        2703063382493.4824,
        -67999782754.81718,
        2531018113770.615,
        -57494075245.91648,
        292992835896474.75,
        -70576437012.94214,
        257643545749201.56,
        7908704398919.23,
        2711294475331.384,
        -123608439762584.69,
        2705413520027.975,
        -62582724583.09877,
        -103755708807.01587,
        5333229900903.349,
        2496496598889.6763,
        2536481703475.7266,
        -72034787640.62837,
        2742972240506.4365,
        180053689428272.75,
        -107853587463.07999,
        5328381603655.699,
        -190203563670039.2,
        -107079235629.91191,
        2740080097704.1787,
        2732993817486.157,
        -102975056064.7588,
        2724993170534.1377,
        -80990180929.81871,
        278429821764.8635,
        7517984819126.589,
        842744392015376.1,
        -83590967718822.42,
        5115505683580.914,
        -69719643382.28128,
        5088544079005.865,
        -72391813581.93634,
        2709164295991.496,
        2735495396135.1016,
        7681688188036.39,
        -66882907864.05104,
        2706939473832.6167,
        -72432054897.35854,
        19428352156192.484,
        1924485765019.4678,
        4880450297738.138,
        2706733415066.214,
        2709812927547.915,
        1896426274490.6997,
        2521972102990.089,
        2727622856276.6787,
        2657975996535.0117,
        -67086261337.30392,
        2704002997597.389,
        5529740075357.565,
        2542641585570.3887,
        2703352808189.8413,
        2691820484314.402,
        -73387570695.27605,
        -63582188322.64063,
        5518382854479.822,
        219209270720010.34,
        -80206458610.80734,
        -113563735084.39632,
        -72069965588.74156,
        -104797647205.12968,
        -58280880382.9923,
        -59848375447.13184,
        -65571300909.1663,
        -82269476874.6261,
        -54635164590.581894,
        2703959770743.0884,
        2729650333919.0415,
        2471210306594.6064,
        -78506604770.70694,
        2708223936977.0645,
        -527819367079985.6,
        48478732875586.31,
        -71794036002.25104,
        1910670996144.752,
        2734960426267.6665,
        -66491373710.91481,
        -99175631278.22726,
        38675728726255.95,
        -72868703361.14772,
        59699967956325.67,
        5535248808793.056,
        -105584226080.72766,
        5326684004063.152,
        5110427109028.034,
        -70744175615.93727,
        -52469822988786.89,
        -71315027743.72343,
        2734553265856.424,
        5337281822774.769,
        -79183827611.84402,
        -60271207710.68706,
        -66593618974.7422,
        -69566156321.0056,
        2514509833327.574,
        2311634632244.321,
        2719326620680.396,
        2733561319687.12,
        2742395948303.2114,
        7688068911425.541,
        2509713168714.7256,
        2711072086783.2734,
        -96832616752.1386,
        -47251976730328.27,
        2742314160622.1006,
        -73844945102.73283,
        -108758875474.43465,
        2507939220910.5366,
        -116115185625.12976,
        -71667368938.7363,
        2280740811950.2466,
        -58256118388.47802,
        -91563114032.26955,
        5541678410095.255,
        5112707370053.059,
        -81009841286408.58,
        -78372978737.23274,
        2683425079454.5415,
        -116850565010977.17,
        -82368994686.59122,
        2704362946153.5684,
        2733548668114.797,
        2740119123715.6636,
        2730123087652.2075,
        52517039695679.56,
        -81134937411.80278,
        -109991888651.89444,
        -65457614069.5742,
        -66575541094.30618,
        -67641279330.90385,
        5312654497082.22,
        138807342691050.17,
        2740101564856.8564,
        -71887873202.89836,
        -84518952651.24861,
        5526025156711.149,
        2741181582771.212,
        42271754740314.09,
        -65478236437.009056,
        2725577276281.0605,
        2740695868466.1084,
        7533496880067.325,
        2486226313548.6733,
        -60431629694.331154,
        2487878059771.9785,
        2482600406866.303,
        2740759400308.351,
        2743061821330.83,
        2712046595701.3716,
        -67923551879.55429,
        -59274489344.90768,
        1903088331958.976,
        -106794472134.4333,
        -70191075311.41106,
        602475696186764.0,
        -64697755248.66714,
        4687540053880.237,
        -70890745533.33318,
        5112377589638.549,
        5534820073998.164,
        292298142382688.6,
        2736331683659.283,
        124941234135487.48,
        10514786996285.928,
        2701019598391.704,
        -98626073117.72562,
        -65748420787.00232,
        2700346061529.3604,
        2698974557984.266,
        4711333012379.489,
        -119594024766.48036,
        2737815814152.3076,
        -77245579499.74275,
        -57185489046.56926,
        -98592005358.93985,
        525189458800.5897,
        5517800412687.8125,
        -58280880366.9923,
        -67994930421.801216,
        -108684934149.86668,
        -81847390021.22981,
        -69976839577.5603,
        2722750885578.88,
        -69946309938.94255,
        2693692449028.5845,
        2731625035801.2944,
        2690068631010.1724,
        2721282934131.373,
        5099325152617.929,
        -74653298443.42914,
        152673447652899.47,
        5114424581413.031,
        670808115893549.4,
        -73200523283.85722,
        306917071934.7715,
        -59505186126.7683,
        2722405995645.406,
        -57665047230.574234,
        2718343684268.7124,
        5278825022557.097,
        -106284328553.62613,
        2709590101642.1274,
        2378018664965.2656,
        -78343009855.16714,
        2299450841102.382,
        2526383352531.796,
        2511844517667.6445,
        -552008173053344.25,
        2740710154128.252,
        2528950491187.9473,
        5075744941175.9375,
        -98900832676.34454,
        2696836321122.804,
        5115368130058.275,
        2306233922976.3115,
        5525941572420.893,
        2281555290597.2485,
        5332482995821.769,
        2691088600281.107,
        5535248409250.952,
        7473974877840.361,
        -63160678482.47507,
        -76190125648.95102,
        -56757547373.32735,
        2494144539718.578,
        -67484258427.58194,
        2739824321581.4224,
        -957554593597164.4,
        -56046095621.439095,
        -67844038832.054596,
        2301167668896.4834,
        -79547920189.58098,
        139163769223981.06,
        2742181824179.631,
        2716680668209.301,
        -65364962333.98585,
        2729175034860.3022,
        2501922329315.8564,
        -94158238291.07877,
        -58823101730.46197,
        2510878069533.1855,
        -73078457273.8731,
        2739246820596.173,
        -75777186039.3555,
        -68389237864.45379,
        2736775316114.7646,
        -100600946812.64381,
        -139195826279.25385,
        5315631224201.109,
        5340748210880.095,
        2727433907449.89,
        2741441982641.7153,
        44783736355404.41,
        -341356464214013.0,
        2741905472203.9473,
        -48608184866652.11,
        -93395761483.857,
        5297886456383.701,
        181048324394610.72,
        -69916361813.04898,
        -86718260598781.28,
        -77818295556.36853,
        -119169685086848.0,
        2535854433075.6494,
        2689450243164.6543,
        2735258747817.8623,
        268136582730957.06,
        -73294132316.74524,
        2731145322642.337,
        2708980774544.926,
        -40467568115017.67,
        -79361469771.27628,
        5122755860107.501,
        5335115135021.848,
        -57006708125.84779,
        5503377613254.5205,
        2504896047622.3174,
        5540529283454.763,
        -106359485501.74815,
        5131996004892.441,
        2713551921589.4214,
        2740419323344.3535,
        -55501568901.40063,
        8114854030966.975,
        2540384261152.893,
        2738171683865.282,
        -59302008141.330246,
        2699074711933.581,
        2741586820767.4395,
        1933375199304.0962,
        -69036310282.67313,
        5064804422240.207,
        2288143621991.742,
        -73410476869.95297,
        2728084473183.3125,
        -71199695065.30014,
        7677232868686.871,
        -88629284216.42816,
        -86396886400.07382,
        169525015099789.38,
        2696487207956.708,
        -57538519483.91648,
        -50917921008.55136,
        5516586586847.565,
        5517895660559.12,
        5534406247551.943,
        180243454826461.78,
        2741125077147.837,
        639490123859845.9,
        -105626344648220.69,
        -40621582001689.97,
        -122871145128.19284,
        2740252456854.9956,
        121651915029415.48,
        -35179196385699.402,
        2309231243054.279,
        2714703444013.5327,
        -65372321037.83116,
        2742051503935.89,
        -70121629543.4451,
        2497849539640.105,
        105189667783713.7,
        4896277869488.985,
        327685820695221.25,
        -74018516965.9141,
        -71650722274.33698,
        -109829470238.68184,
        -56683128360.955734,
        2504715192799.9272,
        -72974944658.02367,
        7464431722269.564,
        5528763810737.152,
        -124428845308.75417,
        -162433770442540.88,
        7481282733811.488,
        -72057781316748.78,
        -87392596395559.12,
        -68269269678.865616,
        2501820235179.0845,
        -144894901338562.47,
        76133440251230.25,
        -75686278823.7912,
        2739495768027.99,
        -74728490062.95647,
        330455092119985.56,
        -77018360639.49565,
        7881483832690.3,
        5726261496078.284,
        2741709042904.0156,
        -68087354030.046715,
        -84615483495.34808,
        -86626891099648.95,
        -123794857077.7162,
        2735461377302.889,
        2291754956044.5293,
        -83817836033.25264,
        2505397808590.9697,
        2690818986360.514,
        5344324895965.427,
        2293745757786.528,
        2312428801848.6426,
        -73357368891.42142,
        -80314549655.05757,
        2739247243989.461,
        2741116840766.402,
        -103186837280.33968,
        2740476580533.573,
        -53993101168.2068,
        5540816047064.372,
        -58134942191.28039,
        2741314955980.1313,
        2698394095515.004,
        2715251024011.824,
        72128916906558.42,
        119725053172115.05,
        -250830729680145.56,
        1914008662384.911,
        -74297290410.84872,
        4896150962768.919,
        2730758288512.6304,
        5278282297663.428,
        -65822373745.92374,
        -114141489254.81174,
        2479784299259.745,
        -56247325313.96729,
        2736548350970.9326,
        2315283641203.3535,
        -68658356368.21949,
        159423413726948.94,
        5331350233834.942,
        5113264214046.459,
        -57001714280.35573,
        2717822205185.814,
        6697520649624.432,
        2740101564902.8564,
        5307553095336.357,
        2692357750509.1655,
        -59641410495728.195,
        -102210240949.7289,
        -112418710949.4044,
        -111304180327.31445,
        -208022883702514.0,
        5477139352748.947,
        -60546970382.363434,
        8102222742879.949,
        -338435546056420.0,
        -106372426614.41759,
        -88254934014.56976,
        2703980729638.037,
        5074138220351.997,
        -86619017727.58691,
        -75909772527.84196,
        2504658901158.213,
        5334729901242.895,
        2742762614698.1357,
        -53782571204.04351,
        -85260639397.3236,
        2739541784136.715,
        -105955460872.41061,
        -53206454385.76428,
        -103076375540.58731,
        730667537494.311,
        2735734677952.5264,
        -66325863414.449814,
        2500897321760.502,
        85964665977775.11,
        -78179563075.7208,
        -61401556106.47191,
        2741001088560.9395,
        5330329933852.711,
        269485941967856.34,
        2508763289120.6406,
        2729917948908.942,
        5317529099925.073,
        -55743932019.30018,
        2730548509105.2246,
        -79108029993.13037,
        2743514957775.353,
        2518618545601.5366,
        -65783068490.21394,
        2740919141740.932,
        5328454600280.179,
        -83242455113.93388,
        2724940394636.1367,
        162449064145939.66,
        -63454020637.81141,
        5279536203612.419,
        -66118033678.06214,
        5318111302034.309,
        8304671531252.963,
        2494977497308.761,
        2718714543715.048,
        6697056342812.762,
        -91443278480.67674,
        -68182525926.33206,
        -71650702210.38908,
        -81114584800.1657,
        -83060226806.09839,
        2295834456599.7764,
        -71754015570.7461,
        2690040888677.874,
        -60407429956.57419,
        -101185143103.72614,
        2742323669167.829,
        106850606384098.03,
        2492583839342.667,
        2682386214566.0083,
        2727280511560.1006,
        68325577809981.97,
        -73795914101.4476,
        -76277836416.41704,
        -74943776285.5759,
        2740250136029.3516,
        5099753888053.023,
        2712465565974.257,
        -77717098875.88098,
        2682017366956.27,
        -61132684687.91434,
        2687593455732.9316,
        -71538603548.19746,
        -102279109524.4037,
        -65432018732.186165,
        315763665657668.44,
        -56852825142.955734,
        -68596179438.589386,
        -111501937164.86826,
        -18066461756882.473,
        2737179383680.5454,
        192409074133459.53,
        -60845909181.30518,
        2677368159832.1025,
        -89930673547.19774,
        89808048132208.61,
        5299273721770.625,
        72678635446808.36,
        -67862494013.545334,
        2499720803993.699,
        2734673568227.7485,
        2526550884240.0327,
        2741325157303.3643,
        -65494837885.19192,
        -76472091134.92096,
        -80410110088.13736,
        2736915256897.9346,
        2728451104685.558,
        5509826525320.107,
        122665849869436.14,
        -71698445852.4067,
        2714146367369.758,
        -60478275774.45573,
        -67271754701.64129,
        -604522438720983.4,
        2292802347524.08,
        -76099969509.57872,
        -73975855539.50792,
        5102142140793.512,
        2698830151653.822,
        2737837401555.6445,
        2471252714741.1855,
        -67294305891.59456,
        8072143057075.094,
        -57899670633.76848,
        8299670943096.288,
        -74136376439.68848,
        2528608285552.878,
        -60643955486.12813,
        3295410217871.551,
        -85807532042.38258,
        4906537096714.443,
        2723844874740.02,
        -77526709990.44576,
        107768619138825.25,
        -77230863712.30508,
        -72969611482.98813,
        2691184745760.966,
        -67958661381.85276,
        -88497961629.16263,
        2742445237126.613,
        2686010012951.6206,
        -74894859565.33281,
        -19291150386358.734,
        -71408115955.15881,
        -58447997867.64464,
        5128983566973.131,
        216206229743042.53,
        2737817120846.9463,
        2707504294247.8013,
        -73002015874.07982,
        -56088895086.1868,
        5298385333498.892,
        2484008518647.965,
        -61182704594.06285,
        2717896733615.1826,
        2726034222913.6914,
        234794724151994.34,
        5332858647982.261,
        2742057852997.5854,
        -74525712190.44633,
        9887907305634.195,
        1339517204085.555,
        5290845913951.924,
        4742338807356.955,
        2523425403609.5317,
        138591483801222.88,
        2719094594631.2197,
        -67241613194.30207,
        406740745720932.5,
        5324513171308.966,
        -80521329403.06845,
        5542406009516.239,
        343091794153734.8,
        5340671804250.101,
        -115813223443.8085,
        -61969711026.06015,
        -95167680445.42477,
        2724489836600.9097,
        2697044296387.149,
        -73496460382.26125,
        -67646770617.76424,
        2746283922450.589,
        5535775665804.973,
        2735910414772.5,
        2679596348357.0728,
        -71479551037.79222,
        5503582862576.385,
        2728228985119.4624,
        2285759518931.422,
        -92764852579277.88,
        2709917810230.988,
        -67938590850.24484,
        1909919754359.1562,
        -58003200871.529755,
        2739648189192.223,
        -63291047380.47464,
        -68492585943.94882,
        2700339132479.6626,
        -100033518128.88939,
        -68544118698.763535,
        -96095420277918.31,
        -49779948667.992615,
        2691490427871.32,
        -72294246463.76266,
        119737769017002.17,
        5519227512793.074,
        2739859600050.734,
        2734229624156.9053,
        5128817866376.535,
        -72445611427.97766,
        2739510113314.1553,
        -91584982828.62619,
        -90470741066.44318,
        -58927409289.95348,
        -96423209394.99295,
        5507475471548.218,
        2304661042070.1924,
        5308690847941.563,
        5336097947790.477,
        -57046158388.35573,
        5085456153668.109,
        5079039205395.206,
        2742881662338.4688,
        13806764024690.523,
        2688488081906.548,
        -148405064498484.38,
        -87825106267.2928,
        -77081741714.40485,
        -95166750306.16376,
        -65088276391.26443,
        -57539803820.92724,
        3204512880078.425,
        2522087432171.058,
        7928498310124.374,
        2318556834243.608,
        2715675096558.7754,
        499872642020214.5,
        -58217408330.46849,
        2710499739700.8545,
        2527534994676.676,
        653665041552761.1,
        2733925415091.4414,
        2743928785631.413,
        -202205059702554.38,
        5306093403110.929,
        2742148271205.377,
        -102791750079762.72,
        5481280496992.627,
        -114106178657.5853,
        -69936161088.1785,
        2739150312724.007,
        -76841777357.50414,
        2739415669718.2554,
        -66406689522.09608,
        2493784347119.7134,
        -75540762850.66151,
        5285495459602.052,
        -61351569155.01979,
        5508558487638.16,
        -57538519655.91648,
        -99767407112.82968,
        5870874311839.302,
        2724470153876.4224,
        -56808380582.955734,
        2307767068574.7466,
        5521285549712.367,
        2736155630305.782,
        3308245055892.334,
        2745510354215.4062,
        -70149897102.06079,
        2494328150634.83,
        -73069526514.45226,
        2509551061648.78,
        5524803099844.281,
        2741920174206.624,
        2741068648981.0786,
        15476946081993.373,
        -67549814877.22266,
        2305387228217.838,
        2724448568418.749,
        5281873487793.499,
        2508737948666.5264,
        105273814315055.94,
        -57959471058.30519,
        2707418358660.631,
        -57494075241.91648,
        2719071575619.981,
        -72541203149.89853,
        1897636355005.5942,
        254369813645966.8,
        -67539449801855.84,
        5509823212510.905,
        2509648705926.051,
        -88333651342.39645,
        8088396993938.242,
        2702184039120.6367,
        -110696300479.97935,
        -72298470117.04395,
        -59317606024.1197,
        2745783902326.923,
        2689530206421.5557,
        2263509752872.955,
        7908642744191.105,
        195492948343953.94,
        2742121345303.1616,
        4516372476771.308,
        -82947948704.98685,
        -70303199343.3872,
        2516869479196.934,
        -63125042726.355034,
        2499976694244.724,
        -49628590002269.81,
        6895090009939.007,
        2722717109533.1357,
        2305996428729.173,
        14824657223408.174,
        378708445170345.25,
        5130437833279.705,
        2319829953362.882,
        2696498453408.151,
        2739187099938.2505,
        -63611788177185.64,
        2741994837497.0503,
        -58447547495.9923,
        5512800402041.213,
        2733375572117.7373,
        219001207317422.1,
        -58827408428.24981,
        -11803150074088.688,
        2731955316195.522,
        -97835685203.08507,
        2722616781471.2197,
        190009107820971.44,
        -87316359373.10338,
        75281649548247.67,
        -59570939936.19455,
        2741448171463.723,
        -66428526915.35895,
        5116521141627.732,
        -87203144923.34978,
        2702544434843.9517,
        -73167389422.01756,
        2497058594014.304,
        5543326090033.373,
        357883415689463.25,
        -98558858778.32649,
        2504930013635.4136,
        2726218265686.13,
        5523309393058.533,
        2745783902396.923,
        2543091664315.7036,
        2699130318358.9707,
        -85311174064.96695,
        -75728601969.16443,
        499875405016815.94,
        -59409351687.37662,
        -84732387226.7662,
        -56808380682.955734,
        8092163557208.387,
        2737948431336.9404,
        151182462771215.44,
        -4722757729899.044,
        -105880160567.0133,
        2728845255437.0435,
        2691848261305.549,
        -8788783908705.395,
        2716544709032.2373,
        2486852604808.639,
        5099652007209.204,
        5539991188067.191,
        316575917894918.8,
        -67177471722.78336,
        -103380560315.99467,
        2742623841626.2383,
        2535607986628.607,
        2734548142424.4883,
        -57438453706.84724,
        -73031352473.13374,
        5310196240433.935,
        -73564093647.35684,
        -80434707680.84909,
        5532396387475.075,
        204662864441348.78,
        -111321975346.74573,
        4498292666210.89,
        5113857852412.329,
        2720312333079.888,
        -96773258852.4594,
        2741518649077.735,
        2728079321099.59,
        2741362457390.39,
        -491645011828955.75,
        2740187913855.752,
        2734847273014.448,
        -84785344717.72073,
        2743605434084.2803,
        119724810856214.36,
        23646305748966.11,
        5309228445761.636,
        -67969983720.15037,
        -83642086492.58394,
        -69466441913.90332,
        5335231401007.875,
        -71831360193.68527,
        -60492982510.87271,
        -58249769480.19231,
        2741181682646.725,
        -59709596221.75419,
        -63251252497.265945,
        21054651341887.484,
        2739708189075.7505,
        -96756804078.92984,
        2540110056238.2993,
        -79875962295.80388,
        2742214996031.018,
        10700443926080.922,
        2698716160580.7515,
        -59297309556.19195,
        -141094720167.36365,
        -69332822831.03825,
        2729111603311.2715,
        5535331955646.938,
        2530081543400.227,
        2742548826636.8623,
        -126757827252.88345,
        -59094213727.71081,
        145099560993295.8,
        2738135410120.087,
        2518616799315.4233,
        2532490025903.758,
        5086134830559.387,
        -148214366290616.16,
        224194005335781.94,
        -68232807774.55873,
        -87726495804.82,
        92346759165454.1,
        2740593487245.686,
        -90625222188.0609,
        2713629481136.8003,
        -59637070857.9542,
        125134422122671.28,
        -115813671457472.78,
        -90052743919.29118,
        -57494074937.91648,
        405278389276736.6,
        -71949793413.868,
        57796752890541.66,
        -71478937785678.62,
        2711340785200.461,
        -59409351475.37662,
        -84478619068.0979,
        -83606267219786.56,
        2739598189025.5977,
        -66409964217.51474,
        5491925095538.024,
        -145949516280111.16,
        202263049710684.4,
        -1285225527512490.0,
        5270833413523.936,
        -175877465452949.06,
        77578934651962.56,
        2728541713493.799,
        2710739860867.1626,
        2739998270397.407,
        2489456409171.884,
        5329425154670.548,
        1881404965913.7861,
        2711893052574.9375,
        -110721537111.81982,
        -63638421029.415955,
        2504511919259.6323,
        -70096331300.03543,
        2285611750910.587,
        -69352868210.84193,
        -256217569674093.06,
        2736595256578.1484,
        -19492966890824.406,
        -82819046295.63477,
        2311206718728.4883,
        2713498058637.559,
        7278497060782.744,
        2724117478629.171,
        -96084654493.50569,
        -70194585827.3811,
        -115585003101.60458,
        2689002490889.454,
        401683022631100.94,
        -248030305523814.75,
        2716665093791.7266,
        -105737986044.8734,
        -80440704237.49408,
        -68301630471.44415,
        159030359048211.72,
        5078782094532.465,
        -127077849313.79855,
        5526820010948.27,
        2689660824067.9536,
        2729328332620.9097,
        -109166513433.74637,
        2742348511147.909,
        -79919351070.1076,
        2510020741970.288,
        2715388761488.055,
        5532063025688.609,
        5297429740458.621,
        -62859472649.88115,
        2702835151395.217,
        2727230363835.054,
        -67094966343.77518,
        -58251178134.519646,
        -65449232384.77649,
        -74201161038.3577,
        65944040467357.34,
        2745111761461.074,
        4924089968665.559,
        25919044522206.734,
        2695296912517.099,
        2742915097833.866,
        -105740289863.55464,
        2723927148149.5283,
        2739425826350.6147,
        2734045813476.942,
        2720460371163.7075,
        -69566188654.03177,
        2719581603892.767,
        2529356853059.5596,
        -100476814408.458,
        -76420503274.53876,
        -87572415330.32947,
        2526845099118.0527,
        -89232522101.97676,
        -67309314037.27703,
        2305204774930.265,
        -72143126694.94269,
        2712446000347.317,
        7726065250215.396,
        2698869266549.832,
        -100006619415.85812,
        5114040921452.017,
        7316605454850.792,
        -105756537297.85426,
        -74868756111.32935,
        5115157830657.268,
        -92028072703.91396,
        2709189840687.25,
        4916271920720.716,
        2739929141617.5444,
        2736545495275.8813,
        2489829042732.926,
        5499623116638.153,
        2488913232581.2256,
        -223408764287789.28,
        5073438150469.95,
        -67751371426.45417,
        -97003390382.68771,
        -533440002357559.4,
        2709191983638.3477,
        -58827408466.24981,
        -95355857329.62686,
        5538648569564.054,
        5339981444716.93,
        10088238978618.127,
        -99229735764.14398,
        -68401994332.54721,
        2740714715603.4414,
        -193736228571781.0,
        2708396909035.029,
        2506408030257.0176,
        2535081543148.042,
        2743458351112.453,
        2492440649949.7964,
        2519729287489.741,
        -91026141117.24031,
        -57327408754.91648,
        -85900364383.38405,
        5531798487303.226,
        -89185172932.69385,
        -61400303999.884995,
        7069357922640.376,
        -79900935235.05022,
        -90915245866.95248,
        2501017689828.1826,
        5264734133740.679,
        -74672084950.2253,
        -87746832466.63931,
        -73173141517.50638,
        -98973680935.8619,
        2512773791090.8086,
        -64686783404.55874,
        -72266150863.24672,
        2739362456942.608,
        2709695698202.575,
        -94356957696.22568,
        -110322939808.22728,
        -94078476937.43217,
        7030724488417.987,
        206829528952372.78,
        2528615195266.5503,
        2478058845098.94,
        13394446857354.36,
        14760067993268.262,
        2706661325106.4053,
        5336308007474.693,
        2722614380636.6943,
        -98211343633.77753,
        -83433040866.78957,
        2710582187540.0366,
        2739658589869.246,
        -90011276224.6362,
        2721671766052.1074,
        109040210772044.47,
        -64748917204.279236,
        2511438827771.3066,
        5528851741418.798,
        2706322215225.9824,
        2743079599194.501,
        2296709789138.661,
        5514086267668.467,
        122730119197501.94,
        -57151688590.41236,
        -89270322640.65308,
        -56852825272.955734,
        33023274927652.742,
        -58046077966.90852,
        -78991850737.09155,
        5111179508490.014,
        133614058632199.88,
        1927383534478.4204,
        -56915839251.709305,
        -363886487724875.9,
        -68463664004.02025,
        -60009193441.389404,
        70822433472136.12,
        -73300722752.59082,
        7912839444304.746,
        5539481743825.624,
        2723666058596.686,
        -64271350198.61544,
        2739347653084.973,
        -299715414584664.5,
        -60458478638.13552,
        2733676128924.398,
        5106080325523.125,
        -210103772119489.62,
        5100867264906.113,
        -96853829099.84749,
        5314015964770.678,
        -80583950552.27858,
        -92027190767.5092,
        -56890899937.51782,
        2738797589325.2446,
        -60161423012.34101,
        -22333554812016.19,
        2725605809963.8013,
        576000660248073.2,
        -128215779832686.08,
        -68903044750.63191,
        -21866849322357.664,
        -56454822119.123505,
        -59088980841.52253,
        -42733340527512.47,
        -71148361456.72342,
        2517486433873.9717,
        2722885113127.9814,
        2740028983276.0566,
        -68524480073.91534,
        2678376360287.388,
        115291552669187.47,
        257223270804777.06,
        -64172747196.79752,
        -95726784584.55528,
        -65481230180.58455,
        5113687589838.971,
        7918139977886.297,
        2741583587273.635,
        -22400381545032.844,
        2540098585504.839,
        -490111953365103.4,
        -95451052562.95367,
        -47088844828004.53,
        2500796403204.7524,
        -64469493605.746445,
        5099334928340.208,
        -77149752438.95583,
        2742364995717.329,
        5531726406621.718,
        -60495116895.83581,
        5539808408123.059,
        -109344360221.5523,
        -68720688565.13963,
        -24428687479737.938,
        -65304070648.17615,
        221782882768366.28,
        2731797439404.336,
        -86442922154.31721,
        2743291684500.8105,
        2500172478304.5366,
        -95147809033.55974,
        2742970571289.4795,
        -59896530781.865555,
        -71218631843.738,
        -69034704841.49236,
        2676124294540.902,
        -58447547567.9923,
        8095527507470.737,
        -82879297235.30931,
        2714208934848.9883,
        -8589225974617.246,
        2742728409245.954,
        -55477428119.20626,
        -22763400520504.727,
        5517325628741.154,
        5099732651781.729,
        2728983288911.6265,
        162462297266014.8,
        -73823378194.88127,
        -86083678019.23785,
        2732171841431.9575,
        2309966348667.9414,
        -92037576239.47461,
        -83338283430.1429,
        -205175177376500.94,
        2691000741696.9297,
        5122694899035.588,
        -36772446810.95306,
        2694582650860.299,
        -147049899094079.0,
        2716273429280.64,
        2.011111111111111e+63,
        5542015156964.109,
        2736378669325.1997,
        5335352190820.948,
        5518368883202.769,
        1.587301587301588e+62,
        -100807481802.63356
    ]
}