{"weights": {"distance_to_start": -13.349417240078964, "num_invaders": 100.0, "distance_from_middle": -100, "distance_from_closest_invader": 100, "scared_distance": 0.0, "distance_to_home": 0.0, "invader_captured": 0.0, "food_protected": 0.0, "avoided_ghost": 0.0, "ambush_location": 0.0, "bias": -100}, "base": {"epsilon": 0.5, "alpha": 0.3, "discount": 0.9}, "num_episodes": 328, "epsilon": [0.5, 0.5, 0.475, 0.5225, 0.57475, 0.5460125, 0.6006137500000001, 0.5705830625, 0.542053909375, 0.51495121390625, 0.5, 0.475, 0.5225, 0.49637499999999996, 0.47155624999999995, 0.518711875, 0.49277628125, 0.5420539093750001, 0.5149512139062501, 0.5664463352968752, 0.6230909688265627, 0.5919364203852345, 0.651130062423758, 0.6185735593025701, 0.5, 0.55, 0.5225, 0.49637499999999996, 0.5460125, 0.5, 0.55, 0.5225, 0.49637499999999996, 0.5, 0.475, 0.45125, 0.496375, 0.47155625, 0.4479784375, 0.42557951562499996, 0.4681374671875, 0.51495121390625, 0.48920365321093745, 0.46474347055039056, 0.5112178176054296, 0.4856569267251581, 0.5, 0.475, 0.45125, 0.496375, 0.47155625, 0.518711875, 0.49277628125, 0.4681374671875, 0.51495121390625, 0.566446335296875, 0.5381240185320313, 0.5112178176054297, 0.4856569267251582, 0.534222619397674, 0.5075114884277903, 0.5582626372705694, 0.6140889009976264, 0.583384455947745, 0.5542152331503577, 0.5265044714928397, 0.5791549186421238, 0.6370704105063362, 0.6052168899810193, 0.5, 0.55, 0.6050000000000001, 0.6655000000000002, 0.6322250000000001, 0.6006137500000001, 0.6606751250000001, 0.6276413687500001, 0.5, 0.55, 0.5, 0.475, 0.5225, 0.49637499999999996, 0.5460125, 0.5187118749999999, 0.4927762812499999, 0.542053909375, 0.51495121390625, 0.48920365321093745, 0.46474347055039056, 0.5112178176054296, 0.4856569267251581, 0.5342226193976739, 0.5075114884277901, 0.5582626372705692, 0.5303495054070407, 0.5833844559477449, 0.5542152331503576, 0.6096367564653934, 0.6706004321119328, 0.7376604753231261, 0.8114265228554387, 0.7708551967126668, 0.8479407163839335, 0.8055436805647368, 0.8860980486212106, 0.84179314619015, 0.7997034888806425, 0.8796738377687068, 0.8356901458802714, 0.9192591604682986, 0.8732962024448836, 0.960625822689372, 0.5, 0.55, 0.6050000000000001, 0.5, 0.55, 0.6050000000000001, 0.6655000000000002, 0.6322250000000001, 0.6954475000000002, 0.7649922500000003, 0.7267426375000002, 0.7994169012500003, 0.7594460561875003, 0.8353906618062503, 0.7936211287159378, 0.8729832415875317, 0.960281565746285, 0.9122674874589707, 1.0, 1.0, 0.5, 0.55, 0.5225, 0.57475, 0.632225, 0.6006137500000001, 0.6606751250000001, 0.6276413687500001, 0.6904055056250001, 0.6558852303437501, 0.6230909688265626, 0.6854000657092189, 0.6511300624237579, 0.61857355930257, 0.6804309152328271, 0.6464093694711857, 0.7110503064183042, 0.675497791097389, 0.6417229015425195, 0.7058951916967715, 0.6706004321119329, 0.6370704105063362, 0.7007774515569698, 0.6657385789791213, 0.7323124368770334, 0.6956968150331817, 0.6609119742815226, 0.7270031717096749, 0.7997034888806425, 0.7597183144366103, 0.8356901458802715, 0.7939056385862578, 0.8732962024448837, 0.8296313923226395, 0.9125945315549036, 0.8669648049771583, 0.8236165647283004, 0.9059782212011305, 0.5, 0.55, 0.6050000000000001, 0.5747500000000001, 0.6322250000000001, 0.5, 0.55, 0.6050000000000001, 0.5747500000000001, 0.5460125, 0.5187118749999999, 0.5705830625, 0.542053909375, 0.5962593003125001, 0.566446335296875, 0.6230909688265626, 0.6854000657092189, 0.6511300624237579, 0.61857355930257, 0.6804309152328271, 0.6464093694711857, 0.6140889009976264, 0.5, 0.475, 0.5, 0.55, 0.5225, 0.49637499999999996, 0.5460125, 0.5187118749999999, 0.5705830625, 0.542053909375, 0.51495121390625, 0.566446335296875, 0.6230909688265626, 0.5919364203852344, 0.6511300624237579, 0.61857355930257, 0.6804309152328271, 0.6464093694711857, 0.7110503064183042, 0.675497791097389, 0.743047570207128, 0.7058951916967715, 0.7764847108664488, 0.7376604753231263, 0.8114265228554389, 0.7708551967126669, 0.8479407163839336, 0.8055436805647369, 0.8860980486212107, 0.8417931461901501, 0.7997034888806426, 0.8796738377687069, 0.8356901458802715, 0.7939056385862578, 0.7542103566569449, 0.8296313923226395, 0.9125945315549036, 0.8669648049771583, 0.8236165647283004, 0.9059782212011305, 0.8606793101410739, 0.5, 0.55, 0.6050000000000001, 0.5747500000000001, 0.6322250000000001, 0.6006137500000001, 0.6606751250000001, 0.7267426375000002, 0.6540683737500003, 0.5886615363750003, 0.6475276900125003, 0.5827749210112503, 0.6410524131123754, 0.5769471718011379, 0.6346418889812517, 0.698106077879377, 0.6282954700914393, 0.5654659230822954, 0.6220125153905249, 0.5598112638514725, 0.6157923902366198, 0.5542131512129579, 0.4987918360916621, 0.4489126524824959, 0.49380391773074556, 0.5431843095038201, 0.4888658785534381, 0.5377524664087819, 0.48397721976790375, 0.5323749417446941, 0.47913744757022475, 0.43122370281320227, 0.47434607309452254, 0.4269114657850703, 0.38422031920656324, 0.4226423511272196, 0.38037811601449767, 0.4184159276159475, 0.46025752037754225, 0.41423176833978803, 0.37280859150580925, 0.4100894506563902, 0.45109839572202926, 0.4059885561498263, 0.446587411764809, 0.4019286705883281, 0.3617358035294953, 0.32556222317654576, 0.35811844549420035, 0.3223066009447803, 0.2900759408503023, 0.31908353493533254, 0.28717518144179927, 0.2584576632976193, 0.28430342962738125, 0.25587308666464315, 0.23028577799817884, 0.25331435579799677, 0.2279829202181971, 0.2507812122400168, 0.5, 0.5, 0.45, 0.49500000000000005, 0.44550000000000006, 0.4009500000000001, 0.44104500000000013, 0.39694050000000014, 0.4366345500000002, 0.48029800500000025, 0.43226820450000025, 0.3890413840500002, 0.4279455224550003], "alpha": [0.1, 0.1, 0.095, 0.10450000000000001, 0.11495000000000002, 0.10920250000000002, 0.12012275000000003, 0.11411661250000002, 0.10841078187500001, 0.10299024278125, 0.1, 0.095, 0.10450000000000001, 0.099275, 0.09431125, 0.10374237500000001, 0.09855525625, 0.10841078187500001, 0.10299024278125, 0.11328926705937502, 0.12461819376531252, 0.11838728407704689, 0.1302260124847516, 0.12371471186051401, 0.1, 0.11000000000000001, 0.10450000000000001, 0.099275, 0.10920250000000001, 0.1, 0.11000000000000001, 0.10450000000000001, 0.099275, 0.1, 0.095, 0.09025, 0.099275, 0.09431125, 0.08959568749999999, 0.08511590312499999, 0.0936274934375, 0.10299024278125, 0.0978407306421875, 0.09294869411007813, 0.10224356352108595, 0.09713138534503164, 0.1, 0.095, 0.09025, 0.099275, 0.09431125, 0.10374237500000001, 0.09855525625, 0.0936274934375, 0.10299024278125, 0.11328926705937502, 0.10762480370640626, 0.10224356352108593, 0.09713138534503163, 0.1068445238795348, 0.10150229768555806, 0.11165252745411387, 0.12281778019952527, 0.116676891189549, 0.11084304663007155, 0.10530089429856797, 0.11583098372842478, 0.12741408210126726, 0.12104337799620389, 0.1, 0.11000000000000001, 0.12100000000000002, 0.13310000000000002, 0.12644500000000003, 0.12012275000000003, 0.13213502500000004, 0.12552827375000003, 0.1, 0.11000000000000001, 0.1, 0.095, 0.10450000000000001, 0.099275, 0.10920250000000001, 0.103742375, 0.09855525624999999, 0.108410781875, 0.10299024278124999, 0.09784073064218748, 0.09294869411007811, 0.10224356352108593, 0.09713138534503163, 0.1068445238795348, 0.10150229768555806, 0.11165252745411387, 0.10606990108140818, 0.116676891189549, 0.11084304663007155, 0.12192735129307872, 0.1341200864223866, 0.14753209506462528, 0.1622853045710878, 0.1541710393425334, 0.16958814327678676, 0.1611087361129474, 0.17721960972424217, 0.16835862923803005, 0.15994069777612854, 0.1759347675537414, 0.16713802917605433, 0.18385183209365977, 0.17465924048897677, 0.19212516453787445, 0.1, 0.11000000000000001, 0.12100000000000002, 0.1, 0.11000000000000001, 0.12100000000000002, 0.13310000000000002, 0.12644500000000003, 0.13908950000000003, 0.15299845000000004, 0.14534852750000002, 0.15988338025000004, 0.15188921123750004, 0.16707813236125005, 0.15872422574318754, 0.1745966483175063, 0.19205631314925695, 0.1824534974917941, 0.20069884724097353, 0.2207687319650709, 0.1, 0.11000000000000001, 0.10450000000000001, 0.11495000000000002, 0.12644500000000003, 0.12012275000000003, 0.13213502500000004, 0.12552827375000003, 0.13808110112500005, 0.13117704606875005, 0.12461819376531254, 0.5, 0.55, 0.5225, 0.49637499999999996, 0.5460125, 0.5187118749999999, 0.5705830625, 0.542053909375, 0.51495121390625, 0.566446335296875, 0.5381240185320313, 0.5112178176054297, 0.5623395993659728, 0.5342226193976741, 0.5876448813374416, 0.5582626372705696, 0.5303495054070411, 0.5833844559477452, 0.6417229015425198, 0.6096367564653937, 0.6706004321119331, 0.6370704105063364, 0.7007774515569701, 0.6657385789791216, 0.7323124368770338, 0.6956968150331821, 0.660911974281523, 0.7270031717096754, 0.3, 0.33, 0.36300000000000004, 0.34485000000000005, 0.3793350000000001, 0.3, 0.33, 0.36300000000000004, 0.34485000000000005, 0.32760750000000005, 0.31122712500000005, 0.3423498375000001, 0.3252323456250001, 0.35775558018750014, 0.3398678011781251, 0.3738545812959376, 0.41124003942553145, 0.39067803745425483, 0.3711441355815421, 0.40825854913969634, 0.3878456216827115, 0.36845334059857593, 0.3, 0.285, 0.3, 0.33, 0.3135, 0.297825, 0.32760750000000005, 0.31122712500000005, 0.3423498375000001, 0.3252323456250001, 0.30897072834375006, 0.3398678011781251, 0.3738545812959376, 0.3551618522311407, 0.39067803745425483, 0.3711441355815421, 0.40825854913969634, 0.3878456216827115, 0.4266301838509827, 0.40529867465843356, 0.44582854212427697, 0.4235371150180631, 0.46589082651986946, 0.44259628519387595, 0.4868559137132636, 0.46251311802760037, 0.5087644298303604, 0.4833262083388424, 0.5316588291727267, 0.5050758877140903, 0.47982209332838577, 0.5278043026612244, 0.5014140875281631, 0.4763433831517549, 0.45252621399416715, 0.4977788353935839, 0.5475567189329423, 0.5201788829862952, 0.49416993883698046, 0.5435869327206786, 0.5164075860846447, 0.3, 0.33, 0.36300000000000004, 0.34485000000000005, 0.3793350000000001, 0.36036825000000006, 0.3964050750000001, 0.43604558250000014, 0.39244102425000016, 0.3531969218250002, 0.3885166140075002, 0.3496649526067502, 0.3846314478674252, 0.3461683030806827, 0.380785133388751, 0.4188636467276261, 0.3769772820548635, 0.3392795538493772, 0.37320750923431495, 0.33588675831088344, 0.3694754341419718, 0.33252789072777467, 0.2992751016549972, 0.2693475914894975, 0.29628235063844727, 0.32591058570229203, 0.29331952713206283, 0.32265147984526915, 0.29038633186074225, 0.3194249650468165, 0.2874824685421349, 0.25873422168792143, 0.2846076438567136, 0.25614687947104225, 0.23053219152393803, 0.25358541067633183, 0.22822686960869865, 0.2510495565695685, 0.2761545122265254, 0.24853906100387285, 0.22368515490348556, 0.24605367039383413, 0.27065903743321756, 0.24359313368989582, 0.26795244705888543, 0.2411572023529969, 0.21704148211769722, 0.1953373339059275, 0.21487106729652028, 0.19338396056686827, 0.17404556451018144, 0.1914501209611996, 0.17230510886507963, 0.15507459797857168, 0.17058205777642885, 0.15352385199878596, 0.13817146679890738, 0.15198861347879813, 0.13678975213091832, 0.15046872734401015, 0.3, 0.3, 0.27, 0.29700000000000004, 0.26730000000000004, 0.24057000000000003, 0.26462700000000006, 0.23816430000000005, 0.26198073000000005, 0.2881788030000001, 0.2593609227000001, 0.2334248304300001, 0.25676731347300014], "discount": [0.5, 0.5, 0.475, 0.5225, 0.57475, 0.5460125, 0.6006137500000001, 0.5705830625, 0.542053909375, 0.51495121390625, 0.5, 0.475, 0.5225, 0.49637499999999996, 0.47155624999999995, 0.518711875, 0.49277628125, 0.5420539093750001, 0.5149512139062501, 0.5664463352968752, 0.6230909688265627, 0.5919364203852345, 0.651130062423758, 0.6185735593025701, 0.5, 0.55, 0.5225, 0.49637499999999996, 0.5460125, 0.5, 0.55, 0.5225, 0.49637499999999996, 0.5, 0.475, 0.45125, 0.496375, 0.47155625, 0.4479784375, 0.42557951562499996, 0.4681374671875, 0.51495121390625, 0.48920365321093745, 0.46474347055039056, 0.5112178176054296, 0.4856569267251581, 0.5, 0.475, 0.45125, 0.496375, 0.47155625, 0.518711875, 0.49277628125, 0.4681374671875, 0.51495121390625, 0.566446335296875, 0.5381240185320313, 0.5112178176054297, 0.4856569267251582, 0.534222619397674, 0.5075114884277903, 0.5582626372705694, 0.6140889009976264, 0.583384455947745, 0.5542152331503577, 0.5265044714928397, 0.5791549186421238, 0.6370704105063362, 0.6052168899810193, 0.5, 0.55, 0.6050000000000001, 0.6655000000000002, 0.6322250000000001, 0.6006137500000001, 0.6606751250000001, 0.6276413687500001, 0.5, 0.55, 0.5, 0.475, 0.5225, 0.49637499999999996, 0.5460125, 0.5187118749999999, 0.4927762812499999, 0.542053909375, 0.51495121390625, 0.48920365321093745, 0.46474347055039056, 0.5112178176054296, 0.4856569267251581, 0.5342226193976739, 0.5075114884277901, 0.5582626372705692, 0.5303495054070407, 0.5833844559477449, 0.5542152331503576, 0.6096367564653934, 0.6706004321119328, 0.7376604753231261, 0.8114265228554387, 0.7708551967126668, 0.8479407163839335, 0.8055436805647368, 0.8860980486212106, 0.84179314619015, 0.7997034888806425, 0.8796738377687068, 0.8356901458802714, 0.9192591604682986, 0.8732962024448836, 0.960625822689372, 0.5, 0.55, 0.6050000000000001, 0.5, 0.55, 0.6050000000000001, 0.6655000000000002, 0.6322250000000001, 0.6954475000000002, 0.7649922500000003, 0.7267426375000002, 0.7994169012500003, 0.7594460561875003, 0.8353906618062503, 0.7936211287159378, 0.8729832415875317, 0.960281565746285, 0.9122674874589707, 1.0, 1.0, 0.5, 0.55, 0.5225, 0.57475, 0.632225, 0.6006137500000001, 0.6606751250000001, 0.6276413687500001, 0.6904055056250001, 0.6558852303437501, 0.6230909688265626, 0.9, 0.9900000000000001, 0.9405, 0.8934749999999999, 0.9828224999999999, 0.9336813749999999, 1.0, 0.95, 0.9025, 0.99275, 0.9431125, 0.895956875, 0.9855525625000001, 0.9362749343750001, 1.0, 0.95, 0.9025, 0.99275, 1.0, 0.95, 1.0, 0.95, 1.0, 0.95, 1.0, 0.95, 0.9025, 0.99275, 0.9, 0.9900000000000001, 1.0, 0.95, 1.0, 0.9, 0.9900000000000001, 1.0, 0.95, 0.9025, 0.8573749999999999, 0.9431124999999999, 0.8959568749999999, 0.9855525624999999, 0.9362749343749999, 1.0, 1.0, 0.95, 0.9025, 0.99275, 0.9431125, 0.895956875, 0.9, 0.855, 0.9, 0.9900000000000001, 0.9405, 0.8934749999999999, 0.9828224999999999, 0.9336813749999999, 1.0, 0.95, 0.9025, 0.99275, 1.0, 0.95, 1.0, 0.95, 1.0, 0.95, 1.0, 0.95, 1.0, 0.95, 1.0, 0.95, 1.0, 0.95, 1.0, 0.95, 1.0, 0.95, 0.9025, 0.99275, 0.9431125, 0.895956875, 0.8511590312499999, 0.936274934375, 1.0, 0.95, 0.9025, 0.99275, 0.9431125, 0.9, 0.9900000000000001, 1.0, 0.95, 1.0, 0.95, 1.0, 1.0, 0.9, 0.81, 0.8910000000000001, 0.8019000000000002, 0.8820900000000003, 0.7938810000000003, 0.8732691000000004, 0.9605960100000005, 0.8645364090000005, 0.7780827681000004, 0.8558910449100006, 0.7703019404190006, 0.8473321344609007, 0.7625989210148106, 0.6863390289133295, 0.6177051260219966, 0.6794756386241962, 0.747423202486616, 0.6726808822379544, 0.7399489704617499, 0.6659540734155749, 0.7325494807571324, 0.6592945326814192, 0.5933650794132773, 0.6527015873546052, 0.5874314286191447, 0.5286882857572303, 0.5815571143329533, 0.523401402899658, 0.5757415431896238, 0.6333156975085862, 0.5699841277577276, 0.5129857149819548, 0.5642842864801503, 0.6207127151281654, 0.5586414436153488, 0.6145055879768838, 0.5530550291791955, 0.49774952626127594, 0.44797457363514837, 0.49277203099866324, 0.4434948278987969, 0.39914534510891725, 0.439059879619809, 0.3951538916578281, 0.3556385024920453, 0.39120235274124987, 0.35208211746712487, 0.3168739057204124, 0.3485612962924537, 0.31370516666320836, 0.3450756833295292, 0.9, 0.9, 0.81, 0.8910000000000001, 0.8019000000000002, 0.7217100000000002, 0.7938810000000003, 0.7144929000000003, 0.7859421900000004, 0.8645364090000005, 0.7780827681000004, 0.7002744912900004, 0.7703019404190005], "total_reward": [-7518, -6850, -7666, -7724, -6244, -6778, -5554, -2600, 1774, -7558, -3078, -8082, -7712, -7024, -8512, -6646, -7510, -2856, -3054, -6190, -2500, -6382, -5142, -4864, -7610, -7090, -6298, -6776, -3350, -7826, -6464, -338, -7412, -7164, -6952, -8094, -7648, -7612, -7148, -8274, -8430, -7428, -7384, -8008, -3006, -7512, -7338, -6918, -7578, -7228, -7796, -7418, -3394, -7104, -7116, -6172, -3204, -3018, -3280, -3274, -7346, -7420, -5534, -5296, -2882, -6000, -6716, -4884, -2682, -3248, -6226, -6642, -4844, -2672, -5666, -2462, -4520, -6780, -6484, -3192, -7408, -3460, -7050, -6146, -3522, -7186, -6436, -3490, -3342, -8414, -7680, -7746, -3384, -7800, -6454, -7080, -2688, -2748, -2890, -4068, -4398, -79.36000000000004, -108.96, 201.20000000000002, -119.51999999999995, -59.60000000000002, -43.91999999999998, -64.08, 104.88, -95.35999999999991, -21.67999999999999, -70.16000000000005, -22.0, -126.96000000000014, -227.19999999999993, 936.3200000000002, -124.88000000000007, -126.00000000000011, -190.71999999999989, -91.59999999999998, -95.28000000000006, -99.7599999999999, 1334.48, -126.79999999999984, -110.23999999999992, -137.7599999999999, -53.59999999999997, -62.799999999999955, -76.88000000000002, -7.040000000000001, -50.16000000000003, -126.88000000000011, -119.20000000000017, -131.2, -271.99999999999994, -190.07999999999998, -26.880000000000017, -102.96000000000002, -92.55999999999999, -69.68000000000002, -42.72000000000002, -35.12000000000002, -46.40000000000002, -26.80000000000001, -21.280000000000012, -36.88000000000002, -24.720000000000002, -32.80000000000002, -33.04000000000001, -21.520000000000007, -19.440000000000005, -33.280000000000015, -35.12000000000001, -17.12, -24.640000000000004, -100.63999999999996, -92.47999999999999, -70.07999999999997, -209.11999999999998, -185.28, 2674.7200000000003, -233.99999999999997, -190.80000000000007, -224.32, -154.95999999999978, -94.8, -102.9600000000001, -84.96000000000001, -77.35999999999994, -196.8799999999998, 174.1599999999998, -185.99999999999997, -140.23999999999995, -90.55999999999995, -193.11999999999998, -194.48000000000005, -56.31999999999996, -60.32, 273.76000000000005, -91.19999999999996, -47.759999999999984, -51.20000000000001, -31.200000000000003, 377.6, -86.71999999999998, -47.52000000000002, -130.0000000000001, -257.52000000000027, 107.60000000000007, -110.08, -102.31999999999994, -130.24000000000004, -263.11999999999995, -222.63999999999987, -110.32000000000004, -108.88000000000002, -287.67999999999995, -112.16000000000005, -128.4000000000001, 2762.6400000000003, -114.80000000000013, -223.43999999999988, -194.07999999999993, -105.04000000000005, -213.36000000000007, -200.31999999999994, -158.31999999999982, -216.0, -114.24, -154.3199999999999, -290.71999999999963, -249.68000000000004, -148.8000000000002, -303.8399999999998, -109.59999999999998, -291.28, -245.28, -237.76000000000008, -300.9599999999998, -2.0, -2.0, -3.92, -7.4399999999999995, -7.84, -52.08000000000003, -154.95999999999998, -94.39999999999992, -288.08000000000004, -186.8799999999998, -214.2400000000002, -97.28000000000009, -206.31999999999988, -97.52000000000001, -178.31999999999996, -143.27999999999986, -188.0000000000001, 673.6000000000001, -62.63999999999993, -58.88, -80.24000000000005, 336.72, -124.4799999999999, 421.4, 1552.0, -60.319999999999986, -48.96000000000002, 126.80000000000001, 811.6800000000001, -68.71999999999994, -95.84000000000007, -63.760000000000055, 221.12, -106.87999999999998, -40.08000000000002, -87.35999999999994, -124.48000000000015, -254.4800000000002, -105.11999999999999, -259.0400000000001, 694.96, -105.35999999999996, -162.55999999999986, -144.7999999999999, -95.11999999999998, -217.84000000000012, -99.20000000000002, -274.3999999999998, -202.71999999999989, -211.2000000000001, -217.59999999999994, -202.39999999999995, -107.84, -223.44000000000003, -192.71999999999989, -525.0043600000013, -417.2394978000009, 1.4666846502687179, 5648.473128702331, -183.18003319901038, -587.4942000000015, -185.72542959982718, -535.5866000000016, -515.1767600000013, -559.2920000000017, -511.2295800000014, -198.10481429504873, -667.356000000002, -563.3480000000015, -205.9192912143683, -724.8682000000024, -631.398000000002, -642.854000000002, -131115.84000000046, -115199.80000000037, -2225.0443664551026, -2249.8398388672194, -121858.40000000037, -101266.75000000017, -128300.8600000004, -101053.44000000019, -1564.3401159667956, -1171.8094458007788, -139257.0800000004, -124914.50000000044, -2135.980710449244, -152908.5600000003, -147153.76000000024, -145903.36000000034, -168326.52000000008, -156862.8600000002, -155673.76000000018, -174465.44, -162190.96000000025, -168580.1200000001, -148787.8800000003, -109939.56000000032, -94268.08000000012, -123966.04000000046, -96163.32000000021, -2142.728933105496, -120915.3800000004, -1131.5838842773435, -1158.108308105466, -128360.08000000037, -98790.56000000019, -2347.68613464359, -123662.42000000042, -48578.859999999935]}