{
    "weights": {
        "successor_score": -0.36148864628486216,
        "num_ghosts_one_step_away": 0.0,
        "distance_from_closest_ghost": 0.0,
        "is_home": -5.452398961839013,
        "distance_to_food": -4.931689896167624,
        "food_eaten": 0.0,
        "avoided_ghost": 11.844631323554946,
        "carrying_food": 46.7871368843092,
        "distance_to_capsule": -22.21264089167267,
        "bias": -49.47369566762129
    },
    "num_episodes": 216,
    "epsilon": [
        0.5,
        0.5,
        0.475,
        0.5225,
        0.49637499999999996,
        0.5460125,
        0.5187118749999999,
        0.5705830625,
        0.542053909375,
        0.5962593003125001,
        0.566446335296875,
        0.5381240185320313,
        0.5919364203852344,
        0.5623395993659727,
        0.61857355930257,
        0.5876448813374414,
        0.5582626372705694,
        0.6140889009976264,
        0.583384455947745,
        0.6417229015425195,
        0.6096367564653935,
        0.6706004321119329,
        0.7376604753231262,
        0.7007774515569698,
        0.7708551967126669,
        0.8479407163839336,
        0.8055436805647369,
        0.8860980486212107,
        0.8417931461901501,
        0.9259724608091652,
        0.8796738377687069,
        0.9676412215455776,
        0.5,
        0.55,
        0.5225,
        0.57475,
        0.632225,
        0.6006137500000001,
        0.6606751250000001,
        0.6276413687500001,
        0.5962593003125001,
        0.6558852303437501,
        0.6230909688265626,
        0.6854000657092189,
        0.6511300624237579,
        0.7162430686661337,
        0.7878673755327472,
        0.7484740067561099,
        0.7110503064183044,
        0.7821553370601348,
        0.7430475702071281,
        0.8173523272278409,
        0.7764847108664488,
        0.8541331819530937,
        0.811426522855439,
        0.892569175140983,
        0.8479407163839338,
        0.9327347880223272,
        0.8860980486212108,
        0.9747078534833319,
        0.9259724608091653,
        1.0,
        0.5,
        0.55,
        0.5225,
        0.57475,
        0.5460125,
        0.5,
        0.475,
        0.5225,
        0.49637499999999996,
        0.5,
        0.475,
        0.45125,
        0.496375,
        0.47155625,
        0.4479784375,
        0.49277628125000006,
        0.5420539093750001,
        0.5962593003125002,
        0.5664463352968752,
        0.6230909688265627,
        0.5919364203852345,
        0.651130062423758,
        0.6185735593025701,
        0.6804309152328272,
        0.6464093694711858,
        0.7110503064183044,
        0.675497791097389,
        0.743047570207128,
        0.7058951916967715,
        0.6706004321119329,
        0.5,
        0.475,
        0.5225,
        0.57475,
        0.5460125,
        0.5187118749999999,
        0.5705830625,
        0.542053909375,
        0.5962593003125001,
        0.566446335296875,
        0.6230909688265626,
        0.5919364203852344,
        0.6511300624237579,
        0.61857355930257,
        0.6804309152328271,
        0.6464093694711857,
        0.6140889009976264,
        0.583384455947745,
        0.6417229015425195,
        0.7058951916967715,
        0.6706004321119329,
        0.6370704105063362,
        0.7007774515569698,
        0.6657385789791213,
        0.7323124368770334,
        0.6956968150331817,
        0.6609119742815226,
        0.7270031717096749,
        0.6906530131241911,
        0.5,
        0.55,
        0.6050000000000001,
        0.5747500000000001,
        0.5460125,
        0.6006137500000001,
        0.5705830625,
        0.6276413687500001,
        0.5962593003125001,
        0.566446335296875,
        0.6230909688265626,
        0.5919364203852344,
        0.6511300624237579,
        0.7162430686661337,
        0.6804309152328271,
        0.5,
        0.475,
        0.5225,
        0.57475,
        0.5460125,
        0.6006137500000001,
        0.5705830625,
        0.542053909375,
        0.5962593003125001,
        0.566446335296875,
        0.6230909688265626,
        0.5919364203852344,
        0.5623395993659727,
        0.5,
        0.55,
        0.5225,
        0.57475,
        0.5460125,
        0.6006137500000001,
        0.5705830625,
        0.6276413687500001,
        0.5962593003125001,
        0.566446335296875,
        0.6230909688265626,
        0.6854000657092189,
        0.6511300624237579,
        0.7162430686661337,
        0.6804309152328271,
        0.7484740067561099,
        0.8233214074317209,
        0.7821553370601348,
        0.7430475702071281,
        0.8173523272278409,
        0.8990875599506251,
        0.8541331819530937,
        0.9395465001484031,
        0.8925691751409829,
        0.9818260926550813,
        0.9327347880223271,
        1.0,
        1.0,
        1.0,
        1.0,
        1.0,
        1.0,
        0.5,
        0.55,
        0.5225,
        0.49637499999999996,
        0.5460125,
        0.5187118749999999,
        0.5705830625,
        0.542053909375,
        0.5962593003125001,
        0.566446335296875,
        0.6230909688265626,
        0.5919364203852344,
        0.5623395993659727,
        0.534222619397674,
        0.5876448813374414,
        0.5582626372705694,
        0.6140889009976264,
        0.583384455947745,
        0.5542152331503577,
        0.6096367564653935,
        0.5791549186421238,
        0.5501971727100176,
        0.6052168899810194,
        0.6657385789791214,
        0.7323124368770335
    ],
    "alpha": [
        0.1,
        0.1,
        0.095,
        0.10450000000000001,
        0.099275,
        0.10920250000000001,
        0.103742375,
        0.1141166125,
        0.108410781875,
        0.1192518600625,
        0.113289267059375,
        0.10762480370640624,
        0.11838728407704688,
        0.11246791987319453,
        0.123714711860514,
        0.11752897626748829,
        0.11165252745411387,
        0.12281778019952527,
        0.116676891189549,
        0.12834458030850393,
        0.12192735129307873,
        0.13412008642238663,
        0.1475320950646253,
        0.14015549031139404,
        0.15417103934253346,
        0.1695881432767868,
        0.16110873611294746,
        0.17721960972424222,
        0.1683586292380301,
        0.18519449216183312,
        0.17593476755374146,
        0.1935282443091156,
        0.1,
        0.11000000000000001,
        0.10450000000000001,
        0.11495000000000002,
        0.12644500000000003,
        0.12012275000000003,
        0.13213502500000004,
        0.12552827375000003,
        0.11925186006250002,
        0.13117704606875003,
        0.12461819376531252,
        0.1370800131418438,
        0.1302260124847516,
        0.14324861373322678,
        0.15757347510654948,
        0.149694801351222,
        0.1422100612836609,
        0.156431067412027,
        0.14860951404142564,
        0.1634704654455682,
        0.1552969421732898,
        0.1708266363906188,
        0.16228530457108784,
        0.17851383502819662,
        0.16958814327678678,
        0.1865469576044655,
        0.17721960972424222,
        0.19494157069666646,
        0.18519449216183312,
        0.20371394137801643,
        0.1,
        0.11000000000000001,
        0.10450000000000001,
        0.11495000000000002,
        0.10920250000000002,
        0.1,
        0.095,
        0.10450000000000001,
        0.099275,
        0.1,
        0.095,
        0.09025,
        0.099275,
        0.09431125,
        0.08959568749999999,
        0.09855525625,
        0.10841078187500001,
        0.11925186006250002,
        0.11328926705937502,
        0.12461819376531252,
        0.11838728407704689,
        0.1302260124847516,
        0.12371471186051401,
        0.13608618304656542,
        0.12928187389423715,
        0.14221006128366087,
        0.13509955821947783,
        0.14860951404142564,
        0.14117903833935436,
        0.13412008642238663,
        0.1,
        0.095,
        0.10450000000000001,
        0.11495000000000002,
        0.10920250000000002,
        0.10374237500000001,
        0.11411661250000002,
        0.10841078187500001,
        0.11925186006250002,
        0.11328926705937502,
        0.12461819376531252,
        0.11838728407704689,
        0.1302260124847516,
        0.12371471186051401,
        0.13608618304656542,
        0.12928187389423715,
        0.12281778019952529,
        0.11667689118954902,
        0.12834458030850393,
        0.14117903833935433,
        0.1341200864223866,
        0.12741408210126726,
        0.140155490311394,
        0.1331477157958243,
        0.14646248737540674,
        0.1391393630066364,
        0.13218239485630456,
        0.14540063434193504,
        0.13813060262483828,
        0.1,
        0.11000000000000001,
        0.12100000000000002,
        0.11495000000000002,
        0.10920250000000002,
        0.12012275000000003,
        0.11411661250000002,
        0.12552827375000003,
        0.11925186006250002,
        0.11328926705937502,
        0.12461819376531252,
        0.11838728407704689,
        0.1302260124847516,
        0.14324861373322678,
        0.13608618304656545,
        0.1,
        0.095,
        0.10450000000000001,
        0.11495000000000002,
        0.10920250000000002,
        0.12012275000000003,
        0.11411661250000002,
        0.10841078187500001,
        0.5,
        0.55,
        0.5225,
        0.57475,
        0.5460125,
        0.5187118749999999,
        0.3,
        0.33,
        0.3135,
        0.34485000000000005,
        0.32760750000000005,
        0.3603682500000001,
        0.3423498375000001,
        0.37658482125000015,
        0.35775558018750014,
        0.3398678011781251,
        0.3738545812959376,
        0.41124003942553145,
        0.39067803745425483,
        0.42974584119968035,
        0.40825854913969634,
        0.449084404053666,
        0.49399284445903263,
        0.46929320223608095,
        0.44582854212427686,
        0.4904113963367046,
        0.5394525359703751,
        0.5124799091718564,
        0.563727900089042,
        0.53554150508459,
        0.589095655593049,
        0.5596408728133965,
        0.6156049600947362,
        0.6771654561042099,
        0.7448820017146309,
        0.8193702018860941,
        0.9013072220747036,
        0.991437944282174,
        0.3,
        0.33,
        0.3135,
        0.297825,
        0.32760750000000005,
        0.31122712500000005,
        0.3423498375000001,
        0.3252323456250001,
        0.35775558018750014,
        0.3398678011781251,
        0.3738545812959376,
        0.3551618522311407,
        0.3374037596195837,
        0.32053357163860446,
        0.35258692880246495,
        0.3349575823623417,
        0.3684533405985759,
        0.3500306735686471,
        0.3325291398902147,
        0.36578205387923624,
        0.3474929511852744,
        0.3301183036260107,
        0.36313013398861177,
        0.399443147387473,
        0.4393874621262203
    ],
    "discount": [
        0.5,
        0.5,
        0.475,
        0.5225,
        0.49637499999999996,
        0.5460125,
        0.5187118749999999,
        0.5705830625,
        0.542053909375,
        0.5962593003125001,
        0.566446335296875,
        0.5381240185320313,
        0.5919364203852344,
        0.5623395993659727,
        0.61857355930257,
        0.5876448813374414,
        0.5582626372705694,
        0.6140889009976264,
        0.583384455947745,
        0.6417229015425195,
        0.6096367564653935,
        0.6706004321119329,
        0.7376604753231262,
        0.7007774515569698,
        0.7708551967126669,
        0.8479407163839336,
        0.8055436805647369,
        0.8860980486212107,
        0.8417931461901501,
        0.9259724608091652,
        0.8796738377687069,
        0.9676412215455776,
        0.5,
        0.55,
        0.5225,
        0.57475,
        0.632225,
        0.6006137500000001,
        0.6606751250000001,
        0.6276413687500001,
        0.5962593003125001,
        0.6558852303437501,
        0.6230909688265626,
        0.6854000657092189,
        0.6511300624237579,
        0.7162430686661337,
        0.7878673755327472,
        0.7484740067561099,
        0.7110503064183044,
        0.7821553370601348,
        0.7430475702071281,
        0.8173523272278409,
        0.7764847108664488,
        0.8541331819530937,
        0.811426522855439,
        0.892569175140983,
        0.8479407163839338,
        0.9327347880223272,
        0.8860980486212108,
        0.9747078534833319,
        0.9259724608091653,
        1.0,
        0.5,
        0.55,
        0.5225,
        0.57475,
        0.5460125,
        0.5,
        0.475,
        0.5225,
        0.49637499999999996,
        0.5,
        0.475,
        0.45125,
        0.496375,
        0.47155625,
        0.4479784375,
        0.49277628125000006,
        0.5420539093750001,
        0.5962593003125002,
        0.5664463352968752,
        0.6230909688265627,
        0.5919364203852345,
        0.651130062423758,
        0.6185735593025701,
        0.6804309152328272,
        0.6464093694711858,
        0.7110503064183044,
        0.675497791097389,
        0.743047570207128,
        0.7058951916967715,
        0.6706004321119329,
        0.5,
        0.475,
        0.5225,
        0.57475,
        0.5460125,
        0.5187118749999999,
        0.5705830625,
        0.542053909375,
        0.5962593003125001,
        0.566446335296875,
        0.6230909688265626,
        0.5919364203852344,
        0.6511300624237579,
        0.61857355930257,
        0.6804309152328271,
        0.6464093694711857,
        0.6140889009976264,
        0.583384455947745,
        0.6417229015425195,
        0.7058951916967715,
        0.6706004321119329,
        0.6370704105063362,
        0.7007774515569698,
        0.6657385789791213,
        0.7323124368770334,
        0.6956968150331817,
        0.6609119742815226,
        0.7270031717096749,
        0.6906530131241911,
        0.5,
        0.55,
        0.6050000000000001,
        0.5747500000000001,
        0.5460125,
        0.6006137500000001,
        0.5705830625,
        0.6276413687500001,
        0.5962593003125001,
        0.566446335296875,
        0.6230909688265626,
        0.5919364203852344,
        0.6511300624237579,
        0.7162430686661337,
        0.6804309152328271,
        0.5,
        0.475,
        0.5225,
        0.57475,
        0.5460125,
        0.6006137500000001,
        0.5705830625,
        0.542053909375,
        0.9,
        0.9900000000000001,
        0.9405,
        1.0,
        0.95,
        0.9025,
        0.9,
        0.9900000000000001,
        0.9405,
        1.0,
        0.95,
        1.0,
        0.95,
        1.0,
        0.95,
        0.9025,
        0.99275,
        1.0,
        0.95,
        1.0,
        0.95,
        1.0,
        1.0,
        0.95,
        0.9025,
        0.99275,
        1.0,
        0.95,
        1.0,
        0.95,
        1.0,
        0.95,
        1.0,
        1.0,
        1.0,
        1.0,
        1.0,
        1.0,
        0.9,
        0.9900000000000001,
        0.9405,
        0.8934749999999999,
        0.9828224999999999,
        0.9336813749999999,
        1.0,
        0.95,
        1.0,
        0.95,
        1.0,
        0.95,
        0.9025,
        0.8573749999999999,
        0.9431124999999999,
        0.8959568749999999,
        0.9855525624999999,
        0.9362749343749999,
        0.8894611876562498,
        0.9784073064218749,
        0.9294869411007811,
        0.8830125940457421,
        0.9713138534503164,
        1.0,
        1.0
    ],
    "base": {
        "epsilon": 0.5,
        "alpha": 0.3,
        "discount": 0.9
    },
    "total_reward": [
        -5126.482963036577,
        -4557.387033220722,
        -9841.718569171539,
        -4358.279508485292,
        -5054.8589454904095,
        -4369.888030726484,
        -8177.092246265251,
        -8027.1644706966545,
        -8167.096050162956,
        -6992.068424922422,
        -4850.256151691223,
        -7919.265994613531,
        -3778.1766923270225,
        -8278.995362781588,
        -7425.645317826983,
        -4138.9985167103305,
        -4420.511487729856,
        -3375.720462363675,
        -7717.477482103438,
        -3779.947341448673,
        -5918.954698126596,
        -6112.721180526843,
        -2999.9495038125674,
        -3209.3232327645833,
        -4813.899453605874,
        -767.0276116983046,
        -3021.1700140881567,
        -1151.8051288653926,
        -2661.6634188025687,
        -1308.7089394297836,
        -2062.154977937983,
        -485.19211307299645,
        -5417.77429876086,
        -3094.21777064833,
        -4695.906852439272,
        -7165.919924748506,
        -3601.5016928695486,
        -6744.2582990613955,
        -5557.245495584463,
        -3952.025832346905,
        -6144.730236581022,
        -2977.875212706878,
        -3753.9636757585995,
        -3389.1723055956927,
        -3630.555678122828,
        -5395.397291618672,
        -3355.0690698569992,
        -3177.1029792829954,
        -5127.573373220169,
        -2616.7158151162034,
        -3049.6897011588944,
        -1970.217116225643,
        -3952.4693338953875,
        -2809.4870712542697,
        -4184.35601508207,
        -1974.1755833115892,
        -2461.8986296259704,
        -899.1645008838209,
        -1637.0724567530383,
        -513.5378531834886,
        -553.5207498770119,
        -8568.734241795883,
        -6698.311752974478,
        -8292.987186070268,
        -3181.262858959541,
        -4761.394718481516,
        -4747.037787394466,
        -8638.695717184577,
        -7859.330505374561,
        -8516.799303307476,
        -7933.259393495428,
        -5257.437013082566,
        -9523.949121161277,
        -8424.790086502051,
        -5210.203508877746,
        -5674.134927729405,
        -8498.76748243259,
        -8634.680015485046,
        -7353.782698067893,
        -7555.536955173822,
        -6894.180644152614,
        -7471.58035676639,
        -3466.3841475557547,
        -6598.3263616776785,
        -2219.5732776766527,
        -6550.396266914703,
        -3451.0369330995827,
        -5387.4022486938475,
        -4795.889590578039,
        -4761.946661320155,
        -3065.1399221066677,
        -158.23099265836564,
        -166.57336914761694,
        -269.5884730588192,
        -269.18557597787316,
        -252.70815641354721,
        -271.4076407552012,
        -242.8045456041599,
        -280.82006134701845,
        -131.36320276910342,
        -247.1802541061841,
        -207.42461626235647,
        -235.86073261471168,
        -124.71918397857121,
        -227.20447812777664,
        -195.0138009145708,
        -193.33819087888375,
        -92.48722915704083,
        -145.27922473189375,
        -205.56479799849487,
        -99.97046331768615,
        36.84962963997963,
        -199.82103675216604,
        -154.041699663024,
        -176.80554009072725,
        -93.44638191832969,
        17.298698035721202,
        -97.87218147392785,
        -88.6197086673482,
        -105.39113270885164,
        -115.94015663299953,
        -245.89368083893063,
        -203.4482168819777,
        -144.23119337715082,
        -156.03963468893474,
        -129.02839256666235,
        -143.89768597064923,
        -127.37673100900349,
        -121.8689127080585,
        -138.561523588922,
        61.26902091777107,
        -137.77927152112073,
        -190.2349016032733,
        -104.49851557453933,
        -183.03045556100724,
        54.29228296086047,
        -157.67115241405796,
        -30.540525328330197,
        -259.95151357044733,
        -147.3057535959973,
        -53.4722540403542,
        -74.80143346170306,
        -38.20456041604951,
        -58.71051314966595,
        -36.455972482801755,
        -47.89668542839278,
        -36.183969710798976,
        -30.326189643776296,
        -43.8632895559725,
        -39.95314834929727,
        -45.808286429018146,
        -32.00446771942278,
        -34.37507817385866,
        -28.653470919324576,
        -49.718292682926865,
        -20.44235487091713,
        -161.96129052919787,
        -115.18949209849299,
        -78.82375447873305,
        -271.3369150971841,
        -117.43427841887134,
        -152.36391393408104,
        -118.88897955143261,
        -86.64916491888157,
        393.0285566152624,
        -181.27765005173075,
        -144.6287598687987,
        -308.28138474704554,
        -140.07637013791165,
        -256.6538196013159,
        -51.48224710374684,
        -145.56142060268033,
        -135.79064405341566,
        182.93687088753708,
        -140.8992314364847,
        -186.0091285568176,
        155.29477177917502,
        -122.05839524683725,
        107.9201390136044,
        -110.52917844932769,
        -124.49634223973011,
        -71.03518727417422,
        40.17266409286654,
        -74.72868444269207,
        -113.4045583244858,
        -36.0535576969225,
        -76.82258013016909,
        -39.43132860374424,
        -65.06975449704818,
        -8.933704757388968,
        -22.764563029443558,
        -323.5389371646751,
        -148.78613150861676,
        -142.1958570197853,
        -267.96549545991087,
        -145.15352261251252,
        -293.4446973733875,
        -249.0330568892179,
        -278.7363171505656,
        113.53125266554838,
        -267.06709621144756,
        -204.30128295521294,
        -125.82625193180067,
        -75.43233945244152,
        -162.02174002777303,
        -129.98115161101316,
        -245.35897335075705,
        -236.08141303853702,
        -217.91767881241518,
        -278.9883748911344,
        -244.42710740265227,
        -146.7749973222224,
        -236.9220757935773,
        -237.27050311748593,
        -42.016396761133635,
        -80.31011975762786
    ]
}